
\data\
ngram 1=4955
ngram 2=14206
ngram 3=1238
ngram 4=764
ngram 5=606

\1-grams:
-3.541891	!	-0.7222177
-1.647021	"	-0.4914631
-4.320043	$	-0.1044175
-2.922102	%	-0.3030932
-3.621072	'	-0.04992127
-4.019012	'll	-0.1779691
-3.089593	's	-0.1042493
-4.019012	've	-0.1042304
-2.657284	(	-0.09445302
-2.67659	)	-0.2741478
-1.379526	,	-0.1892759
-2.146856	-	0.01214667
-4.320043	-129/02	-0.08592507
-1.391135	.	-2.524722
-4.320043	..	-0.08346719
-4.320043	...	-0.08346719
-3.3658	/	-0.1178072
-4.019012	0	-0.103502
-4.320043	08	-0.1044175
-3.717982	1	-0.1036053
-4.019012	1,235	-0.1778652
-4.320043	1,300	-0.09893725
-4.320043	1.2	-0.1042512
-4.320043	1.317	-0.08715963
-4.320043	1.4	-0.1042304
-4.320043	1.5	-0.1044175
-4.019012	10	-0.17747
-4.019012	10,000	-0.177886
-3.206099	100	-1.200562
-4.320043	100.	-0.1043759
-4.320043	1000	-0.1038767
-4.320043	105	-0.1043967
-4.320043	11.5	-0.1042512
-4.019012	110	-0.1779483
-4.320043	115	-0.08642365
-4.320043	12	-0.1043759
-4.320043	12.158	-0.08715963
-4.320043	13.435	-0.1042512
-4.320043	136	-0.1038976
-4.320043	138,000	-0.1043136
-3.842921	14	-0.1043344
-4.320043	140	-0.1043967
-4.320043	143	-0.1044175
-3.541891	15	-0.06640591
-4.320043	15,000	-0.1043136
-4.320043	150	-0.104272
-4.320043	15th	-0.08715963
-4.019012	16	-0.1042096
-4.320043	160	-0.1043551
-4.320043	1608	-0.103106
-4.320043	167	-0.1042512
-4.320043	17	-0.09545011
-4.320043	17.25	-0.1043759
-3.842921	18	-0.1422178
-4.019012	180	-0.1043136
-4.320043	1810	-0.08642365
-4.320043	19	-0.1042304
-4.320043	1931	-0.08592507
-4.320043	1932	-0.08592507
-4.019012	1945	-0.08983329
-4.320043	195	-0.1044175
-4.320043	1950s	-0.1021877
-4.019012	1967	-0.1594975
-4.320043	1971	-0.1035853
-4.320043	1975	-0.08642365
-4.320043	1977	-0.07271223
-4.320043	198	-0.1042304
-4.320043	1980	-0.08592507
-4.320043	1981	-0.08592507
-4.320043	1982	-0.08592507
-4.320043	1987	-0.08642365
-4.019012	1988	-0.09374925
-3.842921	1990	-0.1020415
-4.019012	1991	-0.08577322
-4.320043	1994	-0.1036061
-3.842921	1995	-0.1240024
-4.019012	1999	-0.1599961
-3.3658	2	-0.0853269
-4.320043	2.386	-0.1043759
-3.717982	20	-0.1035853
-4.019012	200	-0.1042928
-4.320043	2001	-0.1043136
-4.320043	2003	-0.1008276
-4.320043	2004	-0.08642365
-4.019012	2005	-0.05276325
-4.019012	2006	-0.1570396
-3.717982	2007	-0.06617901
-4.320043	2008	-0.09500428
-4.019012	2009	-0.07268988
-4.019012	2010	-0.08068808
-3.717982	2011	-0.2545869
-4.320043	2012	-0.08642365
-4.320043	2012-2016	-0.09479181
-3.842921	2013	-0.08412109
-4.320043	20th	-0.08715963
-4.320043	21	-0.08592507
-4.320043	228	-0.1038976
-4.320043	23	-0.1041056
-4.320043	23.5	-0.1042304
-4.019012	230	-0.09477057
-4.320043	24th	-0.08715963
-4.019012	25	-0.08659694
-4.320043	25,000	-0.1044175
-4.320043	250	-0.1043344
-4.320043	260	-0.1044175
-4.320043	273	-0.08592507
-3.842921	28	-0.104168
-4.019012	30	-0.07607551
-4.320043	300	-0.08715963
-4.320043	30th	-0.1043967
-4.320043	31	-0.1039184
-4.320043	313,454	-0.08346719
-4.320043	33	-0.1039184
-4.320043	340	-0.1042512
-4.320043	344	-0.1044175
-4.320043	35	-0.1043344
-4.320043	37	-0.08642365
-4.320043	380	-0.1044175
-3.842921	4	-0.1249769
-3.541891	40	-0.1264392
-4.320043	400	-0.1043967
-4.320043	42	-0.09500428
-4.320043	45	-0.1043136
-4.320043	46	-0.1043967
-3.717982	48	-0.1351136
-4.019012	5	-0.1036478
-4.320043	5,500	-0.09479181
-3.416952	50	-0.09716548
-4.320043	50,000	-0.1043967
-4.320043	500	-0.1042304
-4.320043	51	-0.08642365
-4.320043	53	-0.1038976
-4.320043	53A	-0.1023548
-4.320043	54	-0.1038976
-4.320043	57,000	-0.1042304
-4.320043	589	-0.08715963
-4.019012	6	-0.09400481
-4.320043	6,000	-0.1044175
-4.320043	6.2	-0.1042512
-4.019012	60	-0.1024175
-4.320043	60-90	-0.1039184
-4.320043	600	-0.1043759
-4.019012	61	-0.1749027
-4.320043	69/1	-0.104272
-4.320043	6th	-0.08715963
-3.842921	7	-0.0944942
-3.842921	70	-0.1034187
-4.019012	700	-0.1778652
-4.320043	7041	-0.08642365
-4.320043	71	-0.1043967
-4.320043	75	-0.1043136
-4.320043	75,000	-0.1043136
-3.842921	8	-0.08566472
-4.320043	80	-0.1035228
-4.019012	80,000	-0.1749027
-4.320043	81	-0.08642365
-4.320043	81,500	-0.1044175
-3.842921	83	-0.1339538
-4.019012	9	-0.1033562
-3.842921	90	-0.1031686
-4.320043	92	-0.1039184
-4.019012	97	-0.1008066
-2.717982	:	-0.4326248
-3.320042	;	-0.4206648
-1.326606	</s>
-99	<s>	-0.5187316
-2.814892	?	-1.275735
-2.872884	A	-0.08337994
-4.320043	ACTA	-0.08592507
-4.320043	AG	-0.09923185
-3.621072	AIDS	-0.1171397
-4.320043	AP	-0.1042512
-4.320043	APN	-0.07271223
-4.019012	Abascal	-0.07585359
-4.320043	Abbey	-0.08592507
-4.320043	Abbots	-0.1044175
-3.621072	About	-0.1036686
-4.320043	Academy	-0.09545011
-4.320043	Access	-0.09500428
-3.3658	According	-0.990566
-4.320043	Actually	-0.08592507
-4.320043	Adams	-0.09479181
-4.320043	Adds	-0.09893725
-4.320043	Adena	-0.09545011
-4.320043	Administrator	-0.08715963
-4.320043	Afghanistan	-0.1042304
-3.842921	Africa	-0.08618528
-4.320043	Afro	-0.1013303
-3.842921	After	-0.104064
-4.320043	Afterwards	-0.07271223
-4.320043	Aggravatingly	-0.1043551
-4.019012	Agreement	-0.08505662
-4.320043	Agremex	-0.09479181
-4.320043	Air	-0.1044175
-4.320043	Airport	-0.08715963
-4.320043	Alabama	-0.1034812
-4.320043	Alain	-0.1044175
-4.320043	Alhambra	-0.1043759
-4.320043	Alicante	-0.08346719
-4.320043	Alicea	-0.09479181
-4.019012	All	-0.05409563
-4.320043	Allah	-0.08715963
-4.320043	Almost	-0.1044175
-4.320043	Already	-0.104168
-3.27865	Also	-0.0899106
-4.320043	Alternative	-0.09479181
-4.320043	Alternatively	-0.104064
-4.019012	Although	-0.07199614
-3.717982	America	-0.1110837
-3.320042	American	-0.1227435
-4.320043	Among	-0.1043344
-3.842921	An	-0.1043552
-3.27865	And	-0.12383
-4.320043	Andes	-0.08642365
-4.320043	Ani	-0.08592507
-4.320043	Annette	-0.1044175
-4.320043	Ansel	-0.1044175
-4.320043	Anthony	-0.1044175
-4.320043	Anti	-0.1013303
-4.320043	Anto	-0.1027723
-4.320043	Apart	-0.1033978
-4.320043	April	-0.08592507
-4.019012	Aquarius	-0.1599961
-4.320043	Arctic	-0.1044175
-4.320043	Argentine	-0.1043136
-4.320043	Arill	-0.09893725
-4.320043	Armandito	-0.1044175
-4.320043	Armani	-0.1044175
-4.320043	Around	-0.1043136
-4.320043	Arp	-0.1044175
-3.621072	As	-0.07089731
-4.320043	Asia	-0.1034812
-4.320043	Asians	-0.1023548
-4.320043	Ask	-0.08592507
-4.320043	Assets	-0.08592507
-4.320043	Association	-0.1035228
-4.320043	Asturias	-0.1035228
-3.621072	At	-0.2021734
-3.842921	Atlantic	-0.08622863
-4.320043	Attorneyship	-0.08715963
-4.320043	Audition	-0.08592507
-4.019012	August	-0.1043759
-4.019012	Aurelios	-0.08590339
-4.320043	Australia	-0.1008276
-4.320043	Australian	-0.1043967
-3.842921	Autogas	-0.05467872
-4.320043	Aviation	-0.1044175
-4.320043	Azerbaijan	-0.1041056
-4.320043	Azeri	-0.09479181
-4.320043	Aznar	-0.1027723
-4.320043	BAPS	-0.1035228
-4.320043	BBC	-0.1016442
-4.320043	BBH	-0.08592507
-4.320043	BIO	-0.1043551
-3.842921	BMW	-0.09508924
-4.019012	BSN	-0.08577322
-4.320043	Baghdad	-0.1040224
-4.320043	Balance	-0.1043759
-4.320043	Balearic	-0.1042096
-4.019012	Bali	-0.06710865
-4.019012	Bang	-0.08640199
-4.320043	Bank	-0.1044175
-4.320043	Bankruptcies	-0.08715963
-4.019012	Bankruptcy	-0.1041264
-4.320043	Banyuwangi	-0.08592507
-4.320043	Barack	-0.1043967
-4.320043	Barajas	-0.08346719
-4.320043	Barrel	-0.1043344
-4.019012	Bartow	-0.08566472
-4.019012	Basque	-0.1779691
-4.320043	Bayamon	-0.08592507
-3.541891	Because	-0.07414675
-4.320043	Becks	-0.08642365
-4.320043	Behaviors	-0.1039808
-4.320043	Behind	-0.102501
-4.320043	Beijing	-0.08642365
-4.320043	Being	-0.1041472
-4.320043	Belgrade	-0.1042928
-4.320043	Below	-0.1020206
-4.320043	Benvolio	-0.1034812
-3.416952	Berlin	-0.07478673
-4.320043	Bernhard	-0.1044175
-4.019012	Besides	-0.05276325
-4.019012	Between	-0.1462846
-4.320043	Bible	-0.1041264
-4.320043	Biblical	-0.104272
-4.320043	Big	-0.1043967
-4.320043	Biodegradable	-0.1043551
-4.320043	Biodiversity	-0.09923185
-4.320043	Birmingham	-0.1035228
-4.320043	Black	-0.1044175
-4.320043	Blouson	-0.1043344
-4.320043	Blum	-0.08592507
-4.019012	Board	-0.08340175
-4.320043	Bolivia	-0.08592507
-4.320043	Book	-0.1044175
-4.320043	Boysen	-0.08642365
-4.320043	Brandenburg	-0.08642365
-4.320043	Brazil	-0.08592507
-4.320043	Brea	-0.09545011
-4.320043	Britain	-0.08642365
-3.842921	British	-0.1042512
-4.320043	Broadcasting	-0.1013303
-4.320043	Buddhist	-0.1044175
-4.320043	Buildings	-0.1023548
-3.143951	But	-0.1771472
-4.320043	Buzek	-0.09479181
-4.320043	By	-0.1043551
-4.320043	ByteShooter	-0.1013303
-4.320043	C	-0.1013303
-4.320043	CAD	-0.08642365
-4.019012	CD	-0.08268122
-4.320043	CEDIME	-0.08592507
-4.320043	CLSA	-0.1042928
-4.019012	CO	-0.1778236
-4.320043	CONACYT	-0.1035436
-4.320043	CONVENIENCE	-0.1043551
-4.019012	CTMO	-0.1043344
-4.320043	Cabezo	-0.1044175
-4.019012	Cairo	-0.08640199
-4.019012	California	-0.1594975
-4.320043	Californian	-0.1044175
-4.320043	Can	-0.104064
-4.320043	Canacintra	-0.1038143
-4.320043	Canada	-0.08642365
-4.320043	Canadian	-0.1043967
-4.320043	Canarian	-0.1044175
-4.320043	Canelones	-0.1043551
-4.320043	Canito	-0.09453672
-4.320043	Cannon	-0.08715963
-4.320043	Canutillo	-0.1041888
-4.019012	Capable	-0.160732
-4.320043	Capital	-0.08592507
-4.019012	Cardigan	-0.08215644
-4.320043	Cardo	-0.09545011
-4.320043	Caribbean	-0.1039392
-4.320043	Carlos	-0.1044175
-4.320043	Casa	-0.1044175
-4.019012	Caspian	-0.1779691
-4.320043	Castile	-0.1013303
-4.320043	Catalan	-0.1044175
-4.019012	Catalonia	-0.09830531
-4.019012	Catalunya	-0.07636385
-4.320043	Catholics	-0.1038143
-4.320043	Caucasian	-0.1037519
-4.320043	Caucasus	-0.1042928
-4.320043	Cengemiran	-0.08592507
-3.842921	Central	-0.104168
-4.320043	Cerciorare	-0.1004502
-4.320043	Ceres	-0.08642365
-4.320043	Certificates	-0.09545011
-3.842921	Championship	-0.0671313
-4.320043	Channel	-0.1043967
-4.320043	Chantal	-0.1044175
-4.320043	Cheerful	-0.1044175
-4.320043	Chemistry	-0.09545011
-4.320043	Children	-0.1041264
-4.320043	Chile	-0.08592507
-4.320043	Chilean	-0.1044175
-3.474944	China	-0.1390407
-3.474944	Chinese	-0.1212152
-4.320043	Chino	-0.1044175
-4.320043	Chlamydien	-0.1043344
-4.320043	Christ	-0.08642365
-4.320043	Christian	-0.1044175
-3.717982	Christmas	-0.09523787
-4.320043	Cibeles	-0.1043551
-4.320043	Circuit	-0.08592507
-4.320043	Cister	-0.1044175
-4.320043	Cistercian	-0.1044175
-4.320043	City	-0.1043967
-4.320043	Classics	-0.1044175
-4.320043	Clean	-0.07271223
-4.320043	Clintons	-0.1043344
-4.320043	Clix	-0.1042928
-4.019012	Clothing	-0.09447294
-4.320043	Club	-0.1035436
-4.320043	Cocktail	-0.1044175
-4.320043	Code	-0.09545011
-4.320043	Colors	-0.09479181
-4.019012	Comes	-0.1779691
-4.019012	Commercial	-0.1041888
-3.842921	Commission	-0.1006389
-4.320043	Committed	-0.09500428
-4.320043	Committee	-0.08715963
-4.320043	Community	-0.08715963
-4.320043	Comparative	-0.1044175
-4.019012	Competitions	-0.09921081
-4.320043	Competival	-0.1044175
-3.842921	Complete	-0.3453396
-4.320043	Condoms	-0.1036686
-4.320043	Conquer	-0.07271223
-4.320043	Consequently	-0.08592507
-4.320043	Conservation	-0.08715963
-4.019012	Consider	-0.06842038
-4.320043	Consideration	-0.08715963
-4.019012	Constitutional	-0.1778444
-4.320043	Control	-0.09545011
-4.320043	Controlling	-0.09479181
-4.320043	Convention	-0.1041264
-4.320043	Convergence	-0.1043967
-4.320043	Cookies	-0.1020206
-4.320043	Coordinating	-0.07271223
-4.320043	Corporation	-0.08592507
-4.320043	Cotton	-0.1044175
-4.019012	Council	-0.160732
-4.320043	Counterfeiting	-0.1043967
-4.019012	Country	-0.08514354
-3.416952	Court	-0.1789612
-4.320043	Courts	-0.08715963
-4.320043	Couture	-0.1044175
-4.320043	Cowboys	-0.1041888
-4.320043	Cream	-0.08715963
-4.320043	Creus	-0.08592507
-4.320043	Croat	-0.1044175
-4.320043	Ctra	-0.08642365
-4.320043	Cuba	-0.09545011
-4.320043	Cube	-0.1023131
-4.320043	Cuckoo	-0.09453672
-4.320043	Cultural	-0.1044175
-4.320043	Czech	-0.1043759
-4.320043	D'Arenberg	-0.08592507
-4.320043	DF	-0.1043967
-4.320043	DVB	-0.1013303
-4.320043	DVD	-0.1013303
-4.320043	Daimler	-0.1043967
-4.320043	Dakuan	-0.09453672
-4.019012	Dallas	-0.07558712
-4.320043	Dalmau	-0.08592507
-4.320043	Daniel	-0.1044175
-4.320043	Data	-0.08715963
-4.320043	Datensatz	-0.1027515
-3.842921	Day	-0.07749318
-4.320043	Days	-0.08715963
-4.320043	Degen	-0.1044175
-4.320043	Demokrit	-0.1044175
-4.320043	Depending	-0.1023548
-4.320043	Determination	-0.08715963
-4.320043	Deutsche	-0.1044175
-4.320043	Developers	-0.08592507
-4.320043	Development	-0.1034812
-4.320043	Digital	-0.1044175
-4.019012	Director	-0.160732
-4.320043	Disney	-0.1043759
-4.320043	District	-0.08715963
-4.019012	Division	-0.1594975
-4.320043	Dlamini	-0.08592507
-3.842921	Do	-0.149868
-4.320043	Doctor	-0.1043967
-4.320043	Documents	-0.104168
-4.320043	Dragon	-0.1044175
-4.320043	Dream	-0.1043551
-4.320043	Duchess	-0.08715963
-4.019012	Due	-0.1685767
-3.717982	During	-0.2413085
-4.320043	Dussmann	-0.1042928
-4.320043	E-Books	-0.08642365
-4.320043	EADS	-0.1044175
-4.320043	EL	-0.1044175
-4.320043	ELPAIS	-0.08642365
-4.320043	EOHR	-0.1035228
-4.320043	ES	-0.1043967
-4.019012	ESO	-0.103502
-3.842921	EU	-0.1023131
-4.320043	Each	-0.08715963
-3.621072	East	-0.06647399
-4.320043	Eberly	-0.1042304
-4.320043	Economics	-0.1044175
-4.320043	Ecuador	-0.08592507
-4.320043	Education	-0.1035436
-4.320043	Egyptian	-0.1044175
-4.019012	Egyptians	-0.1594975
-4.320043	Eldorado	-0.1042304
-4.320043	Electoral	-0.104272
-4.320043	Elementary	-0.1043967
-4.320043	Elizabeth	-0.1035436
-4.320043	Elliot	-0.1044175
-4.320043	Elms	-0.08592507
-4.320043	En	-0.1044175
-4.320043	Endeavours	-0.1043551
-4.320043	Energy	-0.1044175
-4.320043	Engineering	-0.08592507
-4.019012	England	-0.07585359
-3.842921	English	-0.07418549
-4.320043	Equally	-0.1036686
-4.320043	Equipment	-0.09479181
-4.320043	Erlebnis	-0.1043136
-4.320043	Ermenegildo	-0.1043967
-4.320043	Escobar	-0.1044175
-4.019012	Esitjeni	-0.07244384
-4.019012	Especially	-0.1014559
-4.320043	Este	-0.1044175
-4.320043	Esteban	-0.1034812
-4.320043	Ethnicity	-0.09479181
-4.019012	Euro	-0.09477057
-3.621072	Europe	-0.08384079
-3.206099	European	-0.1139158
-4.320043	Europeans	-0.1029601
-4.320043	Evaluation	-0.09545011
-4.320043	Even	-0.1044175
-3.842921	Every	-0.1042304
-4.019012	Everybody	-0.1027515
-4.320043	Evolution	-0.08715963
-4.019012	Ewing	-0.0765412
-4.320043	Excellence	-0.1013303
-4.320043	Exchange	-0.1044175
-4.320043	Exemplifying	-0.1008276
-4.320043	Expert	-0.09545011
-4.320043	Extremely	-0.1044175
-4.320043	F	-0.1042512
-3.842921	FB	-0.1422815
-4.320043	FED	-0.08346719
-4.320043	FIFA	-0.09479181
-4.320043	FIRST	-0.1043759
-4.320043	FOOD	-0.1044175
-4.320043	FU	-0.1043967
-4.019012	Facebook	-0.1594975
-4.019012	Facts	-0.1759273
-4.320043	Fair	-0.08642365
-4.019012	Family	-0.1779691
-4.320043	Famous	-0.1042512
-4.019012	Far	-0.1779068
-4.320043	Fastfood	-0.1013303
-3.842921	Fatulayeva	-0.1510363
-4.320043	Faustulus	-0.08592507
-3.621072	February	-0.06997826
-4.320043	Fed	-0.1027723
-3.842921	Federal	-0.1519313
-4.320043	Ferrostaal	-0.1044175
-4.320043	Fifth	-0.1044175
-4.320043	Filename	-0.08642365
-3.842921	Finally	-0.1327603
-4.320043	Fish	-0.08715963
-4.320043	Five	-0.1038976
-4.320043	Fixation	-0.08715963
-4.320043	Flor	-0.1044175
-4.320043	Footbridge	-0.1044175
-3.143951	For	-0.1382862
-4.320043	Formal	-0.1042928
-4.320043	Forth	-0.1044175
-4.019012	Forty	-0.177886
-4.320043	France	-0.103252
-4.320043	Franco	-0.1043759
-4.019012	Frankfurt	-0.1025845
-4.320043	French	-0.08592507
-4.019012	Freudenberg	-0.08536078
-3.541891	From	-0.09314211
-4.320043	Fuentehermosa	-0.08642365
-4.320043	Funds	-0.1020206
-4.320043	GIVE	-0.1043344
-4.320043	GLA	-0.1042512
-4.320043	GONE	-0.1044175
-4.320043	Galicians	-0.1043551
-4.320043	Galilei	-0.1042928
-4.320043	Galileo	-0.1044175
-3.842921	Garavani	-0.06672344
-4.320043	Gases	-0.1020206
-3.842921	Gausse	-0.08494794
-4.320043	Gaza	-0.08642365
-4.019012	Geely	-0.1036686
-4.320043	Gene	-0.1043967
-4.019012	General	-0.1043759
-4.320043	George	-0.08592507
-4.320043	Gerardo	-0.1034812
-3.143951	German	-0.09992548
-3.717982	Germans	-0.09843177
-3.019012	Germany	-0.1304886
-4.320043	God	-0.08715963
-4.320043	Gogos	-0.08592507
-4.320043	Going	-0.09500428
-4.320043	Gonzalez	-0.1044175
-4.019012	Government	-0.09832639
-4.320043	Grand	-0.1044175
-4.320043	Greece	-0.09545011
-4.320043	Greek	-0.1044175
-4.320043	Greiner	-0.08592507
-4.320043	Group	-0.1040848
-4.320043	Guadalquivir	-0.1044175
-4.019012	Guardia	-0.1594975
-4.320043	H	-0.1041472
-4.320043	HAVE	-0.1044175
-4.019012	HIV	-0.1032728
-4.320043	HYDRIC	-0.1044175
-4.320043	HYMN	-0.08346719
-4.019012	Hagman	-0.1594975
-4.320043	Hague	-0.1023548
-4.320043	Hale	-0.08715963
-4.320043	Hamdin	-0.1044175
-4.320043	Handheld	-0.1035228
-4.320043	Hans	-0.1044175
-4.320043	Harlin	-0.1044175
-4.320043	Haute	-0.1044175
-4.320043	Havana	-0.08642365
-4.320043	Have	-0.1040016
-4.320043	Having	-0.1044175
-4.320043	Hawaiian	-0.1043136
-3.320042	He	-0.1087341
-4.320043	Hector	-0.09453672
-4.320043	Heidelberg	-0.07271223
-4.320043	Help	-0.09500428
-4.320043	Helpers	-0.09479181
-4.320043	Helsinki	-0.1043344
-3.842921	Here	-0.05036876
-4.320043	Heritage	-0.1044175
-4.320043	Hetin	-0.09453672
-4.320043	High	-0.1044175
-4.320043	Highness	-0.1038976
-4.320043	Highspeed	-0.1044175
-4.320043	Hindu	-0.08592507
-3.621072	His	-0.10396
-4.320043	Hobby	-0.1013303
-4.320043	Holding	-0.07271223
-4.320043	Holocaust	-0.1036061
-4.019012	Homex	-0.07800153
-4.320043	Honourable	-0.1044175
-4.320043	Hotels	-0.08642365
-4.019012	Hotmail	-0.07585359
-4.320043	Hourruitiner	-0.1044175
-4.320043	Hours	-0.09479181
-4.019012	House	-0.08049046
-3.621072	How	-0.09079952
-3.416952	However	-0.9357293
-4.019012	Hubble	-0.101435
-4.320043	Huber	-0.1038143
-4.320043	Humane	-0.1044175
-4.320043	Hunter	-0.1040848
-4.320043	Hunza	-0.1044175
-4.320043	Husky	-0.1040016
-4.320043	Hype	-0.1041264
-2.686574	I	-0.1229115
-4.320043	IATA	-0.1034812
-4.320043	IBEX	-0.1043344
-4.320043	IBM	-0.1043551
-4.320043	IMEDES	-0.1035228
-4.320043	IMPROVE	-0.1042096
-4.320043	IN	-0.1038559
-4.320043	IRTTF	-0.09545011
-4.320043	ISBD	-0.1027723
-4.320043	IUCN	-0.1013303
-4.320043	IV	-0.09545011
-4.320043	IWH	-0.1035228
-4.320043	IXE	-0.1033978
-4.320043	Iberian	-0.1043967
-3.173914	If	-0.1025275
-4.320043	Ijen	-0.1044175
-4.320043	Il	-0.1044175
-4.019012	Imbongi	-0.1012466
-2.513862	In	-0.4218995
-4.320043	Includes	-0.09893725
-4.320043	Incorporates	-0.1042304
-4.320043	Indonesia	-0.08592507
-4.320043	Indonesian	-0.1043136
-4.019012	Industrial	-0.1043967
-4.320043	Information	-0.1034812
-4.320043	Injects	-0.09893725
-4.320043	Instead	-0.08715963
-3.621072	Institute	-0.2166311
-4.320043	Integrate	-0.1042304
-4.320043	Internacional	-0.09479181
-3.621072	International	-0.1042304
-3.717982	Internet	-0.1210684
-4.320043	Investments	-0.08715963
-4.019012	Iraq	-0.08099531
-4.320043	Iraqi	-0.1044175
-3.717982	Is	-0.101341
-4.320043	Isabel	-0.08592507
-4.320043	Islam	-0.08642365
-4.019012	Israel	-0.07636385
-4.320043	Israelis	-0.1029601
-4.320043	Istambul	-0.08642365
-2.857644	It	-0.4087048
-4.019012	Italian	-0.1043759
-3.842921	Italy	-0.07634168
-3.842921	Its	-0.1043136
-4.320043	Itself	-0.1043967
-4.019012	J.R.	-0.0944942
-4.320043	Jalisco	-0.08346719
-4.019012	Japan	-0.1032103
-4.019012	Jaquard	-0.08590339
-4.320043	Java	-0.09500428
-4.320043	Jeremiah	-0.1044175
-4.320043	Jerome	-0.1043551
-4.019012	Jersey	-0.160732
-4.320043	Jerzy	-0.1044175
-4.320043	Joan	-0.1044175
-4.320043	John	-0.1044175
-4.019012	Jorge	-0.08583831
-4.320043	Judge	-0.1044175
-4.320043	Judicial	-0.1044175
-4.320043	Julio	-0.1044175
-4.320043	July	-0.1043967
-4.019012	June	-0.1030852
-4.320043	Juschtschenko	-0.1020206
-4.320043	Just	-0.09545011
-4.320043	Justice	-0.08715963
-4.320043	Kauder	-0.1043759
-4.320043	Kawah	-0.1044175
-4.320043	Kbep	-0.1042512
-3.842921	Kea	-0.09659445
-4.320043	Kepler	-0.1043136
-4.320043	Keys	-0.1044175
-4.320043	Khanyisile	-0.08592507
-4.320043	Kind	-0.08642365
-4.320043	Klose	-0.1044175
-4.320043	Km	-0.1042512
-4.019012	Knitted	-0.1779691
-4.320043	Koch	-0.1043344
-4.320043	Kopten	-0.08592507
-3.842921	Koran	-0.1432159
-4.019012	Korea	-0.1025636
-4.320043	Korean	-0.1043551
-4.320043	Kosovo	-0.08346719
-4.320043	Kremlin	-0.08642365
-4.320043	Kuschewski	-0.1035228
-4.320043	LETTER	-0.1043551
-4.320043	LIFE	-0.09479181
-4.320043	LPG	-0.08642365
-3.621072	La	-0.1322861
-4.320043	Lack	-0.1042928
-4.320043	Large	-0.1044175
-4.019012	Larry	-0.1779691
-4.320043	Lasa	-0.1029601
-4.320043	Last	-0.1040016
-4.320043	Later	-0.1023131
-3.842921	Latin	-0.09487682
-3.474944	Law	-0.174567
-4.320043	Lennartz	-0.1039808
-4.320043	Leo	-0.1044175
-3.621072	Lerik	-0.0931991
-4.320043	Let	-0.07271223
-4.019012	Library	-0.09477057
-4.019012	Libya	-0.0765412
-4.320043	Libyan	-0.1043759
-4.320043	Lightweight	-0.1043344
-4.320043	Like	-0.102501
-4.019012	Likewise	-0.07607551
-4.320043	Lim	-0.1044175
-4.320043	Limited	-0.08592507
-4.320043	Linen	-0.1043344
-4.320043	Liner	-0.08592507
-4.320043	Linkspartei	-0.1044175
-4.320043	Lipperhey	-0.1013303
-4.320043	Lisette	-0.1044175
-4.320043	Live	-0.1043759
-4.320043	Liverpool	-0.1044175
-4.320043	Lleida	-0.1038143
-4.320043	Lobpreiser	-0.08642365
-4.320043	London	-0.09500428
-4.320043	Long	-0.1013303
-4.320043	Look	-0.1035228
-4.320043	Lorca	-0.08642365
-4.320043	Lotte	-0.1044175
-4.320043	Ludwig	-0.08715963
-4.320043	Luxembourg	-0.1043551
-4.320043	M	-0.1043759
-4.320043	MADRID	-0.1013303
-4.320043	MICRORRIEGO	-0.1043967
-4.320043	MINUTES	-0.1043759
-3.842921	MVRDV	-0.0843606
-4.019012	Maas	-0.1029392
-4.320043	Madams	-0.09479181
-4.320043	Made	-0.1033978
-3.717982	Madrid	-0.0809295
-4.320043	Main	-0.1043551
-4.320043	Maintain	-0.09893725
-4.320043	Man	-0.1044175
-4.320043	Managing	-0.07271223
-4.320043	Manat	-0.1034812
-4.320043	Mancha	-0.1037935
-4.320043	Manga	-0.1043551
-3.842921	Many	-0.1342354
-4.320043	Mar	-0.1043967
-4.019012	March	-0.08583831
-4.320043	Marie	-0.1013303
-4.320043	Marija	-0.1044175
-4.320043	Market	-0.08715963
-4.019012	Marriage	-0.1683642
-4.320043	Marshall	-0.1043967
-4.320043	Mart	-0.08346719
-4.320043	Martin	-0.1044175
-4.320043	Mathematics	-0.09545011
-4.320043	Matthias	-0.1044175
-3.842921	Mauna	-0.348888
-4.320043	Maybe	-0.102501
-4.320043	Mazza	-0.1043551
-4.320043	Meanwhile	-0.08592507
-4.320043	Melendez	-0.08592507
-4.320043	Mellifera	-0.09923185
-4.320043	Men	-0.09479181
-4.019012	Mercantile	-0.1779691
-4.320043	Mercedes	-0.1043759
-3.842921	Mercury	-0.1339538
-3.842921	Messenger	-0.1335202
-4.320043	Meuse	-0.08642365
-3.621072	Mexican	-0.1136599
-4.320043	Mexicana	-0.08715963
-3.474944	Mexico	-0.09669572
-4.320043	Microsoft	-0.1043759
-4.019012	Middle	-0.1779068
-4.320043	Migrations	-0.08592507
-4.320043	Milan	-0.103252
-4.320043	Miles	-0.1043967
-4.320043	Miller	-0.09545011
-4.320043	Milosevic	-0.1034187
-3.717982	Mincy	-0.07585359
-4.019012	Ming	-0.1594975
-4.320043	Minghella	-0.1044175
-4.320043	Minister	-0.1044175
-4.320043	Ministry	-0.08715963
-4.320043	Miroslav	-0.1044175
-3.717982	Mirzayeva	-0.08414286
-4.019012	Mirzayevas	-0.1034603
-4.320043	Model	-0.1042928
-4.019012	Mohammed	-0.1779691
-4.320043	Molitva	-0.09453672
-4.320043	Moncada	-0.08346719
-4.320043	Monges	-0.08642365
-4.320043	Mono	-0.104272
-4.320043	Morales	-0.08592507
-4.320043	More	-0.1039808
-4.320043	Morel	-0.08592507
-4.019012	Moreover	-0.1594975
-4.019012	Morsi	-0.1777196
-4.019012	Moslem	-0.1776572
-4.019012	Mubarak	-0.09508924
-4.320043	Munich	-0.1040848
-4.320043	Mursi	-0.1036061
-4.019012	Mursis	-0.09498304
-4.019012	Muslims	-0.09071371
-4.320043	My	-0.1044175
-4.320043	NASA	-0.1027723
-4.320043	NATO	-0.08642365
-4.320043	NC	-0.1044175
-4.320043	NDR	-0.1044175
-4.320043	Nasa	-0.08642365
-3.474944	National	-0.2172122
-3.842921	Nations	-0.08344538
-4.320043	Nature	-0.1013303
-4.019012	Naty	-0.1779691
-4.320043	Navia	-0.1021877
-4.320043	Nepal	-0.1035228
-4.019012	Netherlands	-0.1599961
-4.320043	Neurotransmitter	-0.1035228
-4.320043	Never	-0.1043759
-4.320043	Nevertheless	-0.08592507
-4.320043	New	-0.1044175
-4.019012	Next	-0.1685767
-4.320043	Nieves	-0.08592507
-4.019012	No	-0.103252
-4.320043	Nodo	-0.104272
-3.717982	North	-0.1393357
-4.320043	Northern	-0.1044175
-4.019012	Not	-0.09885305
-4.320043	November	-0.1043967
-4.019012	Now	-0.09912667
-3.717982	OF	-0.3129393
-4.320043	OIL	-0.1044175
-4.320043	ON	-0.1042096
-4.320043	OPINION	-0.1044175
-4.320043	ORIGIN	-0.1043551
-4.019012	Obama	-0.102146
-4.320043	Obligatorily	-0.07271223
-4.320043	Observatory	-0.09545011
-4.320043	October	-0.1044175
-3.621072	Of	-0.09794998
-3.842921	Office	-0.1041888
-4.320043	Olympiads	-0.08715963
-3.474944	On	-0.2047293
-3.621072	One	-0.1139853
-4.019012	Only	-0.09470681
-4.320043	Optics	-0.08592507
-4.320043	Or	-0.09923185
-4.320043	Order	-0.08592507
-4.320043	Orleans	-0.08592507
-4.320043	Oro	-0.08642365
-4.320043	Ortiz	-0.08592507
-4.320043	Osabide	-0.1042304
-4.320043	Others	-0.1021877
-4.320043	Otherwise	-0.102501
-3.541891	Our	-0.1035645
-4.320043	Overlooked	-0.103106
-4.320043	PATTERN	-0.1027515
-4.019012	PDF	-0.1778236
-4.320043	PE	-0.1004502
-4.320043	PEKING	-0.1013303
-4.320043	PP	-0.1035228
-4.320043	PRICES	-0.1043551
-4.320043	Pablo	-0.1044175
-4.320043	Pakistan	-0.08592507
-4.320043	Palace	-0.08715963
-4.320043	Palazuelo	-0.1043759
-4.320043	Palestine	-0.1037727
-4.320043	Palestinians	-0.1043344
-4.320043	Pamplona	-0.08592507
-4.320043	Pan	-0.1013303
-4.320043	Panamericano	-0.1043551
-4.320043	Pants	-0.1041264
-4.320043	Pappilomaviren	-0.1036894
-4.320043	Paris	-0.1044175
-4.320043	Part	-0.08715963
-4.320043	Participate	-0.09545011
-4.320043	Path	-0.08715963
-4.019012	Patt	-0.1779483
-3.717982	Pattloch	-0.06670076
-4.019012	Paul	-0.08713801
-4.320043	Peace	-0.1044175
-4.019012	Peninsula	-0.08549107
-4.320043	People	-0.1020206
-4.320043	Perceptive	-0.1044175
-4.320043	Permanent	-0.1044175
-4.320043	Persian	-0.09479181
-4.320043	Personalized	-0.1044175
-4.320043	Peru	-0.08642365
-4.019012	Phoenix	-0.1728043
-4.320043	Piazza	-0.1044175
-4.019012	Pilata	-0.1779483
-4.320043	Pixar	-0.09479181
-4.019012	Plan	-0.1016233
-4.320043	Plata	-0.08592507
-4.320043	Platen	-0.09453672
-4.320043	Play	-0.1013303
-4.320043	Please	-0.1044175
-4.320043	Plug	-0.1013303
-3.842921	Poblet	-0.07583138
-4.320043	Poland	-0.09479181
-4.019012	Pole	-0.08590339
-4.019012	Policy	-0.160732
-4.320043	Polo	-0.09923185
-4.320043	Ponce	-0.1043967
-4.019012	Population	-0.1779691
-4.320043	Possibility	-0.09500428
-4.320043	Power	-0.08592507
-4.320043	Prequalification	-0.1044175
-4.320043	Present	-0.09545011
-3.041289	Presents	-0.5565211
-4.320043	Preventing	-0.1036894
-4.320043	Previously	-0.07271223
-4.320043	Prime	-0.1044175
-4.320043	Princess	-0.1044175
-4.320043	Print	-0.1043967
-4.320043	Prix	-0.1044175
-4.320043	Probably	-0.08592507
-4.320043	Professional	-0.1044175
-4.320043	Project	-0.1044175
-4.320043	Property	-0.07271223
-3.842921	Puerto	-0.1520144
-4.019012	Puma	-0.08577322
-4.320043	Punished	-0.1016442
-4.320043	Quality	-0.1044175
-4.320043	Quito	-0.08592507
-4.320043	RELATIVELY	-0.1044175
-4.320043	RESOURCES	-0.08642365
-4.320043	ROM	-0.08642365
-4.320043	Radio	-0.1043759
-4.320043	Raise	-0.07271223
-4.320043	Rather	-0.07271223
-4.320043	Ratified	-0.103106
-4.019012	Raymond	-0.1043552
-4.320043	Redondo	-0.08592507
-4.320043	Refine	-0.09545011
-4.320043	Regrettable	-0.1040848
-4.320043	Regulations	-0.1044175
-4.320043	Report	-0.1023548
-3.320042	Repsol	-0.07353912
-3.842921	Republic	-0.08405574
-3.717982	Reyes	-0.120265
-4.320043	Rican	-0.1043759
-4.019012	Rico	-0.1021042
-4.019012	Right	-0.09464304
-4.019012	Rioja	-0.09830531
-4.320043	Risk	-0.1044175
-4.320043	Rivaling	-0.1044175
-4.320043	River	-0.09479181
-4.320043	Robert	-0.1013303
-4.320043	Roca	-0.08592507
-4.019012	Rodrigo	-0.1043967
-4.320043	Rolando	-0.1044175
-4.320043	Romance	-0.1043967
-4.019012	Rome	-0.1594975
-4.320043	Romeo	-0.1034812
-4.320043	Ross	-0.1043967
-4.320043	Rotterdam	-0.1043759
-4.320043	Route	-0.08642365
-4.320043	Rubaba	-0.1043551
-4.320043	Russia	-0.09479181
-4.320043	S	-0.1043759
-4.320043	SAFETY	-0.1044175
-4.320043	SBA	-0.1042512
-4.320043	SCARCE	-0.1044175
-4.320043	SECONDS	-0.1043759
-4.320043	SHOWY	-0.1044175
-4.019012	SPD	-0.09479182
-4.320043	SUMMER	-0.08642365
-4.320043	Sabbahi	-0.08592507
-4.320043	Sada	-0.1042096
-4.320043	Saeda	-0.08642365
-4.320043	San	-0.1044175
-4.320043	Santander	-0.08592507
-4.320043	Santes	-0.1044175
-4.320043	Sany	-0.08592507
-4.320043	Sardinia	-0.08642365
-4.320043	Saturn	-0.09479181
-4.320043	Scholz	-0.08592507
-4.320043	School	-0.1035436
-4.019012	Schools	-0.102668
-4.320043	Schulz	-0.1043967
-4.320043	Scientists	-0.1044175
-4.019012	Sea	-0.1594975
-4.320043	Second	-0.1042928
-4.320043	See	-0.08592507
-4.019012	Senate	-0.09436659
-4.019012	September	-0.1043759
-4.320043	Serbian	-0.1044175
-4.320043	Serifovic	-0.1034812
-4.320043	Serotonin	-0.08642365
-4.320043	Seven	-0.08715963
-4.320043	Several	-0.1043967
-4.320043	Seville	-0.08642365
-4.320043	Shaker	-0.1008276
-4.320043	Sharing	-0.09893725
-4.019012	She	-0.1763447
-3.717982	Shirt	-0.2701414
-4.320043	Shortall	-0.08592507
-4.019012	Silk	-0.1043136
-4.019012	Similarly	-0.1594975
-4.320043	Simultaneously	-0.07271223
-3.3658	Since	-0.1575077
-4.019012	Singapore	-0.1599961
-3.842921	Singaporeans	-0.1496591
-4.320043	Sippy	-0.1044175
-4.320043	Site	-0.08642365
-3.621072	So	-0.1285697
-4.019012	Social	-0.1043552
-4.019012	Somerset	-0.1779691
-4.019012	Sometimes	-0.08512181
-4.320043	Soon	-0.08592507
-4.320043	South	-0.1043967
-4.019012	Southern	-0.1779691
-4.320043	Soviet	-0.1043759
-4.320043	Space	-0.09479181
-4.320043	Spagna	-0.09545011
-3.541891	Spain	-0.04885955
-3.621072	Spanish	-0.1029392
-4.320043	Speak	-0.07271223
-4.320043	Special	-0.1043967
-4.320043	Specialized	-0.1043759
-4.320043	Spectrums	-0.09453672
-4.320043	Spends	-0.1044175
-4.320043	Spiegel	-0.08592507
-4.019012	Spijkenisse	-0.09477057
-4.320043	Sporting	-0.1044175
-4.320043	Stamp	-0.08592507
-3.717982	State	-0.100523
-3.27865	States	-0.4692084
-4.320043	Statistics	-0.08715963
-4.320043	Steiger	-0.1035228
-4.320043	Stepan	-0.1043136
-4.320043	Stepans	-0.1043551
-3.717982	Stephen	-0.313064
-4.019012	Still	-0.1041264
-4.320043	Stimulating	-0.08592507
-4.320043	Stirner	-0.1023131
-4.320043	Stock	-0.1044175
-4.320043	Stockholm	-0.102501
-4.019012	Straight	-0.1749027
-4.320043	Strategic	-0.1043967
-4.320043	Subaru	-0.1042304
-4.320043	Subject	-0.1043759
-4.320043	Suggesting	-0.07271223
-4.320043	Sunday	-0.08642365
-4.320043	Supplied	-0.1043136
-4.320043	Support	-0.09479181
-4.320043	Supportive	-0.1044175
-4.019012	Supreme	-0.1778444
-4.320043	Swaziland	-0.1043344
-4.320043	Swinging	-0.07271223
-4.320043	Swiss	-0.09479181
-3.621072	Szabo	-0.137438
-4.320043	T	-0.1043551
-3.27865	THE	-0.1042096
-4.320043	THROUGHOUT	-0.1042096
-4.019012	TO	-0.1043344
-4.019012	TV	-0.1749027
-4.320043	Tagus	-0.1041472
-4.320043	Tahrir	-0.1023548
-4.320043	Taiwan	-0.08642365
-4.320043	Talk	-0.1043759
-4.320043	Talyschen	-0.1033978
-4.320043	Talysh	-0.08592507
-4.019012	Tan	-0.1779691
-4.019012	Tarragona	-0.08514354
-4.320043	Tasty	-0.08592507
-4.320043	Taxi	-0.1044175
-4.320043	Taylor	-0.1044175
-3.717982	Team	-0.07242147
-4.019012	Technical	-0.0858817
-4.320043	Teenie	-0.1013303
-4.320043	Telescope	-0.09923185
-4.320043	Temporary	-0.1043551
-4.320043	Ten	-0.1036894
-4.320043	Terminal	-0.1043759
-4.320043	Terminus	-0.09923185
-3.842921	Texas	-0.128129
-4.320043	Text	-0.09479181
-3.621072	That	-0.2565159
-1.979598	The	-0.1072857
-3.416952	Then	-0.0877592
-3.541891	There	-0.100549
-4.019012	Therefore	-0.1594975
-3.621072	These	-0.104168
-3.206099	They	-0.1538118
-3.019012	This	-0.1939773
-4.320043	Thistle	-0.1008276
-4.019012	Thomas	-0.1043344
-4.320043	Those	-0.1039808
-4.320043	Through	-0.1044175
-4.320043	Thus	-0.1040224
-4.320043	Timor	-0.1044175
-4.320043	Timoschenko	-0.09479181
-4.320043	Tinted	-0.1044175
-3.717982	To	-0.07244384
-4.019012	Today	-0.1594975
-4.320043	Top	-0.08715963
-4.320043	Toro	-0.08592507
-4.320043	Torre	-0.1043967
-4.320043	Torres	-0.08642365
-4.320043	Tour	-0.08592507
-4.320043	Tourism	-0.09923185
-4.320043	Town	-0.1043967
-4.019012	Trade	-0.0858817
-4.320043	Trademark	-0.1043759
-4.320043	Tradition	-0.08592507
-4.320043	Tragikern	-0.1035853
-4.320043	Transatlantic	-0.1044175
-4.320043	Transportation	-0.09545011
-4.320043	Triana	-0.09923185
-4.320043	Trillo	-0.1044175
-4.320043	Trouser	-0.08592507
-4.320043	Trousers	-0.1044175
-4.320043	Trusts	-0.1043344
-4.320043	Tuesday	-0.08592507
-4.320043	Turbulences	-0.1035228
-3.717982	Twitter	-0.05607494
-4.320043	UEFA	-0.1027723
-4.320043	UGC	-0.1043967
-4.019012	UN	-0.09826315
-4.320043	UP	-0.1044175
-3.621072	US	-0.1007018
-3.842921	USA	-0.08300888
-4.320043	Ulrich	-0.1044175
-4.320043	Ultra	-0.1044175
-3.842921	Unainik	-0.13339
-4.320043	Unhaltbarkeit	-0.08715963
-4.320043	Uniformity	-0.08715963
-4.019012	Union	-0.100597
-4.320043	Unique	-0.104272
-3.173914	United	-1.017666
-3.717982	University	-0.2563863
-4.320043	Unlike	-0.1044175
-4.019012	Unnoticed	-0.1766784
-4.019012	Up	-0.1685767
-4.320043	Urges	-0.1043759
-4.320043	Use	-0.08715963
-4.320043	VANGUARD	-0.08592507
-4.320043	VERY	-0.1044175
-4.320043	Valencian	-0.1044175
-3.621072	Valentino	-0.125413
-4.320043	Valeria	-0.1044175
-4.320043	Valladolid	-0.08592507
-4.320043	Vallbona	-0.1043551
-4.320043	Valley	-0.09545011
-4.019012	Vaqueros	-0.100576
-4.320043	Veic	-0.1043551
-4.320043	Verhaig	-0.08592507
-4.320043	Verneda	-0.1029601
-4.320043	Via	-0.1043967
-4.320043	Video	-0.1044175
-4.320043	Villena	-0.08642365
-4.320043	Visit	-0.07271223
-3.474944	Vitro	-0.04281769
-4.320043	Voices	-0.1016442
-4.320043	Volker	-0.1044175
-4.320043	Volvo	-0.1044175
-4.320043	WAY	-0.1044175
-4.320043	WITH	-0.1044175
-4.320043	WWF	-0.1042512
-4.320043	Wagner	-0.1043344
-4.320043	War	-0.08642365
-4.320043	Warmth	-0.09479181
-4.320043	Washington	-0.08592507
-4.320043	Watford	-0.103106
-3.173914	We	-0.1083147
-4.320043	Weathers	-0.07271223
-4.320043	Web	-0.08346719
-4.320043	Wednesday	-0.09545011
-4.320043	Week	-0.08592507
-4.019012	Wei	-0.1779691
-4.320043	Welle	-0.1036061
-4.019012	Wentzler	-0.08099531
-4.320043	Wessing	-0.1038559
-3.3658	What	-0.1634647
-4.019012	When	-0.1032728
-4.320043	Where	-0.09545011
-3.842921	Which	-0.1022504
-4.320043	While	-0.1040016
-3.842921	Who	-0.1495128
-4.320043	Whole	-0.1043551
-4.019012	Why	-0.1036269
-4.320043	Wildcard	-0.1043344
-3.842921	Windows	-0.1043759
-4.019012	Winy	-0.07266752
-3.621072	With	-0.0972289
-4.019012	Without	-0.1022922
-4.320043	Wolfgang	-0.1044175
-4.320043	Women	-0.08346719
-4.320043	Working	-0.09453672
-3.474944	World	-0.1875992
-4.320043	Worth	-0.08592507
-4.320043	Wright	-0.08592507
-4.320043	X	-0.1013303
-4.320043	XP	-0.1043136
-4.320043	YOUR	-0.1044175
-4.320043	YPF	-0.08592507
-4.320043	Yak	-0.1013303
-4.320043	Yew	-0.1044175
-3.621072	You	-0.09952626
-4.019012	Zegna	-0.08640199
-4.320043	Zodwa	-0.1044175
-4.019012	Zulu	-0.08590339
-1.900087	a	-0.1303967
-4.019012	abide	-0.1766784
-3.541891	able	-0.5150266
-4.320043	abounded	-0.1035228
-2.905069	about	-0.2431343
-3.621072	above	-0.2237579
-3.842921	absolute	-0.08627198
-4.019012	absolutely	-0.1036686
-4.320043	absolved	-0.1040848
-4.320043	abstained	-0.1033978
-4.320043	abstractions	-0.1035228
-4.320043	accent	-0.08642365
-4.320043	acceptable	-0.1039808
-4.320043	acceptance	-0.08642365
-4.320043	accepted	-0.08642365
-4.019012	access	-0.1685767
-3.27865	according	-1.069747
-4.320043	accordingly	-0.1036894
-3.541891	account	-0.08661295
-3.842921	accounts	-0.08346719
-4.320043	accumulated	-0.1034812
-4.320043	accuracy	-0.08592507
-4.320043	accused	-0.07271223
-4.320043	accustomed	-0.1043344
-4.320043	achieve	-0.09893725
-3.621072	achieved	-0.09666559
-4.320043	achievement	-0.09545011
-4.320043	achieves	-0.09545011
-4.320043	acquaintance	-0.08715963
-4.320043	acquaintances	-0.08642365
-4.320043	across	-0.07271223
-4.320043	act	-0.08715963
-4.320043	acted	-0.1021877
-4.320043	acting	-0.1044175
-3.621072	action	-0.09487683
-3.621072	actions	-0.07284638
-4.320043	active	-0.1041056
-3.842921	activities	-0.06353794
-3.541891	activity	-0.07529825
-4.320043	adapt	-0.07271223
-4.320043	adaptation	-0.09500428
-4.320043	adapted	-0.09500428
-4.320043	adapters	-0.08642365
-4.320043	add	-0.1032936
-3.474944	added	-0.1474779
-4.320043	addendums	-0.103252
-3.474944	addition	-0.1510639
-4.320043	additional	-0.1044175
-4.019012	adds	-0.09807337
-3.717982	adequate	-0.1043136
-4.320043	adjacent	-0.1044175
-4.320043	adjoining	-0.1044175
-3.717982	adjustable	-0.1038768
-4.019012	adjusted	-0.1041472
-4.320043	administered	-0.103106
-4.320043	administers	-0.08642365
-4.019012	administration	-0.1036478
-4.320043	administrator	-0.09453672
-4.320043	admits	-0.1041264
-4.320043	adolescents	-0.09923185
-4.320043	adopt	-0.1043759
-4.320043	adorable	-0.08642365
-4.320043	adults	-0.09479181
-4.320043	advance	-0.1016442
-4.320043	advanced	-0.08642365
-3.842921	advantages	-0.0722872
-4.320043	adventure	-0.1044175
-4.320043	adventures	-0.1020206
-4.320043	adverse	-0.1044175
-4.320043	advertising	-0.1042096
-4.320043	advice	-0.09479181
-4.320043	advise	-0.1041264
-4.320043	advocates	-0.104168
-4.320043	aerobic	-0.1044175
-4.019012	affairs	-0.09477057
-4.019012	affect	-0.07268988
-4.320043	affectatio	-0.1044175
-3.621072	affected	-0.2327762
-4.320043	affecting	-0.1041472
-3.320042	after	-0.3328052
-4.019012	afterwards	-0.08633699
-3.717982	again	-0.05621431
-3.089593	against	-0.4057833
-3.416952	age	-0.1096686
-3.717982	aged	-0.1391901
-4.320043	agency	-0.1044175
-4.320043	agent	-0.1027723
-3.541891	ago	-0.2104231
-4.320043	agree	-0.1023548
-4.320043	agreeable	-0.1044175
-3.842921	agreed	-0.145986
-3.842921	agreements	-0.0765412
-4.019012	aid	-0.07733835
-3.541891	air	-0.09874775
-4.320043	alarming	-0.1043551
-4.320043	alias	-0.1004502
-4.320043	alive	-0.1021877
-2.751841	all	-0.1890452
-3.717982	allow	-0.104064
-4.019012	allowed	-0.07607551
-4.019012	allowing	-0.103252
-3.842921	allows	-0.06676877
-4.019012	almonds	-0.08542593
-3.320042	almost	-0.1112757
-4.019012	along	-0.07266752
-4.320043	aloud	-0.09479181
-4.320043	alphabetical	-0.1042512
-3.416952	already	-0.09210584
-2.76374	also	-0.01679824
-4.320043	alternative	-0.1043967
-4.320043	altitude	-0.08592507
-3.541891	always	-0.1024801
-4.320043	am	-0.1043967
-4.320043	amazing	-0.1044175
-4.320043	ambassador	-0.09500428
-4.320043	amendments	-0.09500428
-4.320043	amicus	-0.1044175
-4.320043	amok	-0.1008276
-3.416952	among	-0.1045979
-3.842921	amount	-0.08081978
-4.019012	amounted	-0.1685767
-4.320043	amplifies	-0.104168
-2.587649	an	-0.117073
-4.320043	analysis	-0.09479181
-4.320043	analyze	-0.1023131
-4.320043	analyzed	-0.08642365
-1.65823	and	-0.03432517
-4.320043	andaricas	-0.1034812
-3.842921	angle	-0.04824495
-4.320043	angler	-0.09479181
-4.019012	animal	-0.1043136
-4.320043	animals	-0.08592507
-4.320043	anniversary	-0.08715963
-3.842921	announced	-0.1506403
-4.320043	announcement	-0.1035436
-4.320043	announces	-0.1004502
-3.541891	another	-0.1027097
-4.320043	answer	-0.09500428
-4.320043	answered	-0.1016442
-4.019012	answers	-0.08390323
-4.019012	anti	-0.1749027
-3.240861	any	-0.1085055
-4.320043	anybody	-0.1036686
-4.019012	anything	-0.0954289
-4.019012	anyway	-0.06679143
-4.019012	apartment	-0.07705066
-3.842921	apartments	-0.0654975
-4.019012	apparently	-0.1043967
-3.842921	appeal	-0.0769621
-4.320043	appealing	-0.1016442
-3.717982	appeals	-0.1222167
-3.842921	appear	-0.08372886
-4.019012	appearance	-0.08707312
-4.320043	appeared	-0.1023548
-4.320043	appears	-0.08346719
-4.320043	appetite	-0.08642365
-4.320043	applets	-0.09545011
-4.320043	applicants	-0.08592507
-3.541891	application	-0.06460994
-3.842921	applications	-0.08252822
-4.320043	applied	-0.08592507
-4.320043	apply	-0.102501
-4.320043	appreciate	-0.07271223
-4.320043	appreciation	-0.09479181
-3.842921	approach	-0.05196656
-4.320043	appropriately	-0.09479181
-4.320043	approx.	-0.1044175
-4.019012	approximately	-0.09374925
-4.019012	aquariums	-0.09532279
-4.320043	aquatic	-0.103252
-4.320043	arbitrating	-0.1040848
-4.320043	archaeological	-0.1043759
-4.019012	architect	-0.08640199
-4.019012	architects	-0.09472807
-3.842921	architecture	-0.0934296
-2.255584	are	-0.135469
-3.3658	area	-0.1354727
-3.416952	areas	-0.1225529
-4.320043	argue	-0.1043759
-4.320043	aristocrat	-0.1040848
-4.320043	arm	-0.09479181
-4.019012	armholes	-0.1599961
-4.320043	armored	-0.1042304
-4.320043	army	-0.08642365
-4.320043	arose	-0.1043344
-3.621072	around	-0.06024733
-4.320043	arrange	-0.09545011
-4.320043	arrive	-0.1043759
-3.842921	arrived	-0.142154
-3.842921	art	-0.05730455
-4.019012	article	-0.0858817
-4.320043	artists	-0.08642365
-2.286619	as	-0.2681784
-4.320043	ascribed	-0.09500428
-4.320043	aside	-0.1043967
-4.320043	asinine	-0.1043344
-3.717982	asked	-0.09097105
-4.019012	aspects	-0.1594975
-4.320043	asphalt	-0.09479181
-4.320043	assert	-0.08642365
-4.320043	assertion	-0.08642365
-4.320043	assessments	-0.08642365
-4.019012	assistance	-0.08514354
-4.320043	associated	-0.08592507
-3.842921	association	-0.09935804
-4.320043	associations	-0.09479181
-4.320043	assumes	-0.09893725
-4.019012	assumption	-0.06787807
-4.320043	assured	-0.1004502
-4.320043	asteroids	-0.1027515
-4.320043	astronomy	-0.08642365
-4.320043	asymmetric	-0.09479181
-2.67659	at	-0.4685121
-4.019012	atmosphere	-0.08049046
-4.320043	atoms	-0.09479181
-4.320043	attachment	-0.09500428
-4.320043	attempt	-0.09500428
-4.320043	attend	-0.1043551
-4.320043	attendees	-0.08642365
-4.320043	attends	-0.07271223
-3.717982	attention	-0.1207429
-4.320043	attitude	-0.08642365
-4.320043	attitudes	-0.08642365
-4.019012	attraction	-0.1599961
-4.320043	attractivity	-0.1021877
-4.320043	attributes	-0.07271223
-4.320043	audio	-0.1013303
-4.019012	aura	-0.08705148
-4.320043	authentic	-0.1044175
-4.019012	author	-0.1043967
-4.320043	authoresses	-0.104272
-3.842921	authority	-0.06658739
-4.320043	automatic	-0.09479181
-4.320043	automatically	-0.08642365
-4.320043	avant	-0.1013303
-4.320043	avenged	-0.08592507
-3.842921	average	-0.1347549
-4.019012	awareness	-0.07705066
-3.842921	away	-0.1106737
-3.206099	back	-0.2223433
-4.320043	background	-0.08715963
-4.320043	backup	-0.1041264
-4.320043	bacteria	-0.1044175
-4.320043	bacterium	-0.1043759
-4.019012	bad	-0.1016024
-4.019012	balance	-0.09472807
-4.320043	balances	-0.104272
-4.320043	ball	-0.1043136
-4.320043	balustrade	-0.08592507
-4.320043	bamboo	-0.1043967
-4.320043	band	-0.08715963
-4.320043	bands	-0.1036061
-4.320043	banquet	-0.1044175
-4.320043	banquets	-0.08642365
-4.320043	bar	-0.1044175
-4.320043	barbs	-0.09500428
-4.320043	based	-0.1023548
-3.717982	basic	-0.09472807
-4.019012	basis	-0.08425175
-4.320043	basket	-0.1023548
-4.019012	basketball	-0.1027515
-4.019012	baskets	-0.08300888
-4.320043	basque	-0.1044175
-4.320043	baths	-0.08715963
-2.487534	be	-0.05538955
-4.320043	bears	-0.07271223
-4.320043	beat	-0.1042304
-4.320043	beats	-0.07271223
-4.019012	beauty	-0.08590339
-4.019012	became	-0.1040848
-3.089593	because	-0.4039749
-3.842921	become	-0.1034603
-3.717982	becomes	-0.07177211
-2.801528	been	-0.1136209
-3.206099	before	-0.2369472
-4.320043	beforehand	-0.08642365
-4.320043	began	-0.1042928
-3.416952	beginning	-0.8767521
-4.019012	begun	-0.09481307
-4.320043	behalf	-0.08715963
-4.019012	behavior	-0.08705148
-4.320043	behaviors	-0.103252
-3.206099	being	-0.08852401
-3.717982	believe	-0.260713
-4.320043	believed	-0.1004502
-4.320043	bell	-0.08642365
-4.320043	belong	-0.09500428
-4.320043	belonged	-0.09500428
-4.320043	belonging	-0.09500428
-4.019012	belt	-0.07636385
-4.320043	bench	-0.08592507
-4.019012	benefits	-0.09298168
-4.320043	beside	-0.1039184
-4.320043	besides	-0.08592507
-3.206099	best	-0.08416464
-4.320043	bet	-0.08715963
-4.320043	beta	-0.09453672
-3.416952	better	-0.1110711
-3.089593	between	-0.08213006
-4.019012	bewildered	-0.1779691
-4.320043	biannual	-0.1044175
-4.320043	biases	-0.1004502
-4.320043	biblical	-0.104168
-3.717982	bicolor	-0.09181586
-4.320043	bicycles	-0.08715963
-3.621072	big	-0.08577323
-3.621072	bigger	-0.09129254
-4.320043	biggest	-0.1044175
-4.019012	bikers	-0.1002404
-4.320043	billion	-0.1042512
-4.320043	bind	-0.09500428
-4.320043	bio	-0.08642365
-4.320043	biodegradability	-0.08592507
-4.019012	biodegradable	-0.1779276
-3.320042	biodiversity	-0.1017722
-4.320043	bioenergy	-0.08642365
-4.320043	biologically	-0.1044175
-3.474944	birth	-0.1446311
-4.320043	births	-0.08592507
-4.320043	bit	-0.08715963
-4.320043	bitter	-0.1043551
-3.621072	black	-0.1011
-4.320043	blacks	-0.09479181
-4.320043	blames	-0.1042928
-4.320043	blemish	-0.1043967
-3.842921	blend	-0.3316716
-4.320043	blisters	-0.103252
-4.320043	block	-0.1044175
-3.842921	blocks	-0.1318903
-4.320043	blond	-0.1044175
-4.320043	blood	-0.104064
-4.320043	blouson	-0.1044175
-4.320043	blows	-0.07271223
-3.717982	blue	-0.08910183
-3.717982	board	-0.1156327
-4.320043	boards	-0.1008276
-4.320043	bodice	-0.09479181
-4.320043	body	-0.08642365
-4.320043	boils	-0.1041888
-4.320043	bold	-0.1044175
-4.320043	bolero	-0.1013303
-4.320043	bomber	-0.1042928
-3.3658	book	-0.0945209
-3.717982	books	-0.121307
-4.019012	bookshelves	-0.1026263
-4.320043	booting	-0.1043551
-4.019012	border	-0.1043759
-4.320043	born	-0.1023548
-3.717982	both	-0.1027306
-4.320043	bottom	-0.08715963
-4.320043	bounce	-0.08642365
-4.320043	box	-0.08592507
-4.320043	boxes	-0.09453672
-3.842921	boys	-0.06706335
-4.320043	braids	-0.09545011
-4.019012	branches	-0.08577322
-3.842921	brand	-0.0944304
-3.842921	brands	-0.1246892
-4.320043	breach	-0.09453672
-4.019012	break	-0.08557791
-4.320043	breaking	-0.1044175
-4.320043	breaks	-0.07271223
-4.320043	breath	-0.08715963
-4.320043	bridge	-0.09500428
-4.320043	bridges	-0.1004502
-4.320043	brief	-0.1043344
-4.320043	briefest	-0.1043759
-4.320043	briefly	-0.1041056
-4.320043	bright	-0.09479181
-4.320043	brightly	-0.1044175
-3.842921	bring	-0.07253332
-4.019012	brings	-0.1025219
-4.320043	broad	-0.1044175
-4.320043	broadcast	-0.09923185
-4.320043	broadcasting	-0.08715963
-4.320043	broadcasts	-0.08715963
-4.320043	broadens	-0.07271223
-4.320043	broader	-0.1043551
-4.019012	bronze	-0.08609856
-3.842921	brothers	-0.0860552
-3.717982	brought	-0.06821709
-4.320043	brown	-0.07271223
-4.320043	brush	-0.1044175
-4.320043	buckle	-0.08715963
-4.320043	budget	-0.1021877
-4.320043	budgets	-0.08642365
-4.019012	build	-0.09511048
-4.019012	builder	-0.09474932
-3.717982	building	-0.1214587
-4.320043	buildings	-0.08592507
-4.320043	built	-0.1035853
-4.320043	burden	-0.1023548
-4.320043	burned	-0.1044175
-4.320043	bursting	-0.1008276
-4.019012	bus	-0.1042512
-3.3658	business	-0.06065548
-4.019012	businessman	-0.07607551
-2.922102	but	-0.07525052
-4.320043	butane	-0.1020206
-3.621072	button	-0.09358564
-4.019012	buttoned	-0.07658552
-3.621072	buttons	-0.1235972
-4.320043	buy	-0.09893725
-4.320043	buyer	-0.1043967
-2.513862	by	-0.3690573
-4.320043	cabinet	-0.08642365
-4.320043	calculated	-0.1004502
-4.320043	calculation	-0.08715963
-4.019012	call	-0.07253332
-3.541891	called	-0.1168091
-4.320043	calls	-0.07271223
-3.541891	came	-0.180191
-4.019012	campaign	-0.09557742
-2.751841	can	-0.257956
-4.320043	canale	-0.08642365
-4.320043	canalized	-0.09500428
-4.320043	canceling	-0.08592507
-4.320043	cancels	-0.1039184
-3.842921	candidates	-0.1497636
-4.320043	candidatures	-0.08642365
-4.019012	cannot	-0.1030018
-4.019012	capable	-0.160732
-4.019012	capacities	-0.08357624
-4.320043	capacity	-0.08715963
-3.717982	capital	-0.07771428
-4.320043	capitalism	-0.09453672
-4.320043	capitalist	-0.1042512
-4.019012	car	-0.1043552
-4.320043	carbon	-0.1044175
-4.320043	carcinoma	-0.08715963
-4.320043	card	-0.08715963
-4.320043	cardigan	-0.1043967
-4.320043	cards	-0.08592507
-3.842921	care	-0.05862308
-3.717982	career	-0.111727
-4.320043	careful	-0.103106
-3.416952	carried	-0.9538891
-4.320043	carrier	-0.08592507
-3.842921	carriers	-0.06221136
-4.320043	carries	-0.1023548
-4.019012	carry	-0.1776572
-4.320043	carrying	-0.1040848
-4.320043	cars	-0.103106
-4.320043	cascade	-0.1043759
-3.143951	case	-0.08681557
-4.320043	cased	-0.1039808
-3.3658	cases	-0.05632363
-4.320043	cash	-0.104064
-4.320043	cashmere	-0.09479181
-3.717982	casual	-0.1391901
-4.320043	catalog	-0.08715963
-4.320043	catastrophe	-0.1044175
-4.320043	catch	-0.09479181
-4.019012	categories	-0.08549107
-4.320043	catholic	-0.1044175
-4.320043	cauliflower	-0.09479181
-3.621072	cause	-0.04956766
-4.019012	causes	-0.08640199
-4.320043	celebrate	-0.07271223
-3.717982	celebrated	-0.1285318
-4.320043	celebration	-0.09453672
-4.320043	cemetery	-0.1041264
-4.320043	cent	-0.09545011
-3.541891	center	-0.2003748
-4.320043	centered	-0.1043759
-4.019012	centers	-0.08631532
-4.019012	central	-0.1040848
-3.842921	cents	-0.1483613
-3.416952	certain	-0.1034812
-4.320043	certificate	-0.08642365
-4.320043	certificates	-0.08715963
-4.019012	certifications	-0.08559961
-4.019012	certified	-0.1038143
-4.320043	chairperson	-0.08715963
-4.019012	challenges	-0.06787807
-4.320043	chamber	-0.08715963
-4.019012	champions	-0.1690225
-3.842921	championship	-0.05862308
-4.019012	championships	-0.08711638
-4.320043	chance	-0.08642365
-3.717982	change	-0.07536494
-3.842921	changes	-0.1246892
-4.320043	chapter	-0.1008276
-3.541891	character	-0.1587358
-4.320043	characteristics	-0.1021877
-4.320043	characterization	-0.08715963
-4.019012	charge	-0.09436659
-4.320043	charisma	-0.08715963
-4.320043	charm	-0.08642365
-4.320043	chart	-0.08642365
-4.019012	charter	-0.08590339
-4.320043	charts	-0.09479181
-4.320043	chat	-0.1043759
-4.019012	cheap	-0.08466524
-4.320043	check	-0.1013303
-4.320043	cheer	-0.1039184
-4.320043	cheese	-0.1044175
-4.320043	chess	-0.1043759
-4.019012	chest	-0.09474932
-4.320043	chew	-0.1042304
-4.320043	chic	-0.1004502
-3.842921	child	-0.067086
-4.320043	childhood	-0.08642365
-3.115922	children	-0.1402609
-4.019012	choices	-0.08594677
-4.019012	choir	-0.1043967
-4.019012	choose	-0.07233195
-4.320043	chooses	-0.07271223
-4.320043	choosing	-0.07271223
-4.320043	chronicles	-0.08715963
-4.320043	churches	-0.1043136
-4.019012	cinema	-0.09477057
-4.019012	circle	-0.06787807
-4.320043	circumstances	-0.08642365
-3.842921	cities	-0.3304371
-4.320043	citizen	-0.08346719
-3.621072	citizens	-0.07617304
-3.621072	city	-0.2362967
-3.842921	civil	-0.1043136
-4.320043	claimed	-0.07271223
-4.019012	claiming	-0.1036269
-4.019012	claims	-0.09481307
-4.320043	clamped	-0.1035228
-4.019012	clarification	-0.08540421
-4.320043	clarifies	-0.07271223
-4.019012	clarify	-0.177886
-4.019012	class	-0.1034187
-4.320043	classes	-0.09545011
-4.019012	classic	-0.08581661
-4.320043	classical	-0.1042304
-4.320043	classics	-0.1020206
-4.320043	classified	-0.1008276
-4.320043	classify	-0.09545011
-4.320043	clean	-0.08592507
-4.320043	cleaning	-0.1043759
-3.320042	clear	-0.104821
-4.320043	clearly	-0.08642365
-3.621072	cleavage	-0.09990309
-3.842921	clients	-0.08570813
-4.320043	climate	-0.09923185
-4.320043	climbed	-0.1043967
-4.320043	climbers	-0.1043967
-4.320043	clinical	-0.1042928
-4.320043	clinker	-0.1044175
-4.019012	clips	-0.07607551
-4.320043	cloister	-0.1042304
-3.621072	close	-0.1187084
-3.842921	closed	-0.07549826
-3.541891	closure	-0.09045619
-4.320043	clothes	-0.1004502
-4.320043	clothing	-0.08715963
-3.842921	club	-0.06447326
-4.320043	co	-0.1013303
-4.320043	coalition	-0.1041056
-4.320043	coapoderado	-0.103252
-4.320043	coast	-0.1038976
-4.320043	coasting	-0.1043759
-4.320043	coasts	-0.1020206
-4.320043	cod	-0.09545011
-4.320043	coffee	-0.1043967
-4.320043	cognition	-0.08642365
-4.320043	coherent	-0.09479181
-4.320043	coincidence	-0.1041264
-4.019012	cold	-0.08622862
-4.019012	coldest	-0.177886
-4.320043	collaborate	-0.1008276
-4.320043	colleagues	-0.08642365
-4.320043	collect	-0.1032728
-4.320043	collected	-0.1044175
-4.019012	collective	-0.1043552
-3.474944	color	-0.07207507
-4.320043	colors	-0.1020206
-4.320043	colossal	-0.1043967
-4.320043	colour	-0.08642365
-4.320043	colours	-0.1020206
-4.320043	column	-0.08592507
-3.842921	combat	-0.3172242
-4.320043	combated	-0.09545011
-4.019012	combination	-0.08340175
-4.320043	combinations	-0.09545011
-4.320043	combine	-0.09500428
-4.019012	combines	-0.1043759
-3.541891	come	-0.09235386
-4.320043	comeback	-0.1042928
-3.717982	comes	-0.1250849
-4.320043	comets	-0.103252
-3.474944	comfort	-0.2157744
-4.320043	comment	-0.1023548
-4.320043	comments	-0.1044175
-4.320043	commerce	-0.1034812
-3.842921	commercial	-0.1042304
-4.320043	commit	-0.1044175
-4.019012	commitment	-0.1685767
-3.621072	common	-0.07631952
-4.320043	communication	-0.1043759
-4.320043	communicative	-0.1043967
-4.320043	communists	-0.1044175
-4.019012	communities	-0.07585359
-3.842921	community	-0.06529285
-4.320043	compact	-0.1042304
-3.416952	companies	-0.1515197
-4.320043	companions	-0.09545011
-3.27865	company	-0.04288463
-4.320043	compare	-0.1038767
-3.842921	compared	-0.3395163
-4.320043	comparison	-0.08715963
-4.019012	compartment	-0.06710865
-4.320043	compatible	-0.1008276
-4.320043	compelling	-0.1043344
-4.320043	compensated	-0.103106
-4.320043	competence	-0.08715963
-4.320043	competency	-0.103252
-3.621072	competition	-0.08738247
-3.842921	compiled	-0.3399621
-4.320043	complainant	-0.09923185
-4.320043	complaints	-0.08715963
-4.320043	complement	-0.09500428
-4.320043	complements	-0.07271223
-4.019012	complete	-0.1744
-4.320043	completed	-0.1044175
-4.019012	completely	-0.1043759
-4.320043	complex	-0.08715963
-4.320043	complies	-0.1008276
-4.320043	component	-0.08715963
-4.320043	components	-0.1039808
-4.320043	compose	-0.07271223
-4.019012	composed	-0.08577322
-4.320043	composition	-0.1034812
-4.320043	composure	-0.09479181
-4.320043	compound	-0.1043759
-4.320043	compulsively	-0.08592507
-4.320043	compulsorias	-0.1043967
-4.320043	computers	-0.08715963
-4.320043	concealed	-0.1044175
-4.320043	concept	-0.08715963
-4.019012	concepts	-0.08579492
-4.320043	concern	-0.1042512
-4.320043	concessionary	-0.1042304
-4.320043	concludes	-0.1044175
-4.320043	conclusion	-0.08592507
-4.019012	concrete	-0.1043967
-4.320043	condemns	-0.07271223
-3.474944	conditions	-0.1595873
-4.320043	condom	-0.09453672
-3.842921	condoms	-0.09082095
-4.320043	confectionery	-0.08642365
-4.320043	confidence	-0.1044175
-4.019012	confident	-0.08514354
-4.320043	configuration	-0.09479181
-4.320043	configure	-0.07271223
-4.320043	confirmed	-0.1043967
-4.019012	conflict	-0.1683642
-4.320043	conflicts	-0.103252
-4.320043	confront	-0.07271223
-4.320043	congruent	-0.09479181
-4.320043	conic	-0.1042928
-4.320043	connection	-0.08715963
-4.320043	connections	-0.09479181
-4.320043	conscience	-0.08715963
-4.320043	consent	-0.1043759
-4.320043	consequence	-0.1041056
-3.541891	conservation	-0.05958694
-4.320043	conserve	-0.09479181
-4.320043	conserver	-0.1034187
-4.320043	conservers	-0.08715963
-4.320043	consider	-0.1041888
-4.320043	considerably	-0.09500428
-4.019012	consideration	-0.1599961
-4.019012	considered	-0.09270417
-4.320043	consists	-0.08715963
-4.320043	consolidated	-0.1021877
-4.320043	consolidates	-0.1023131
-4.019012	constellation	-0.1779691
-4.320043	constituents	-0.08642365
-4.320043	constituted	-0.08346719
-3.621072	constitution	-0.1146448
-4.320043	constitutional	-0.1044175
-4.320043	constitutive	-0.08715963
-3.541891	construction	-0.0999956
-4.320043	construe	-0.1021877
-4.019012	consultation	-0.09460052
-4.320043	consulted	-0.103106
-4.320043	consumer	-0.09893725
-4.019012	consumption	-0.06839781
-4.019012	contact	-0.0860552
-4.320043	contacts	-0.1036686
-4.320043	container	-0.08592507
-4.320043	contemporary	-0.1044175
-4.320043	contend	-0.1016442
-4.320043	contest	-0.07271223
-4.320043	contestations	-0.09545011
-4.320043	contesting	-0.1040848
-4.019012	continent	-0.0991477
-4.320043	continuance	-0.08642365
-4.320043	continue	-0.09545011
-4.320043	continued	-0.1043967
-3.842921	continues	-0.3395163
-4.320043	continuing	-0.09545011
-4.320043	continuity	-0.08715963
-4.320043	continuously	-0.1043759
-4.320043	contract	-0.08642365
-4.320043	contracts	-0.1041264
-4.019012	contrast	-0.08635866
-4.019012	contrasting	-0.0954289
-4.320043	contribute	-0.09545011
-4.019012	contributed	-0.06255482
-4.019012	contribution	-0.09491931
-4.320043	contributions	-0.08715963
-3.842921	control	-0.07134614
-4.320043	controversial	-0.1044175
-4.320043	convenient	-0.09500428
-4.320043	conventional	-0.1044175
-4.320043	conventions	-0.08642365
-4.019012	conversation	-0.08265936
-4.320043	conversations	-0.1043759
-4.019012	convert	-0.08581661
-4.019012	converted	-0.1690225
-4.320043	converts	-0.1023131
-4.320043	convince	-0.1044175
-3.842921	convinced	-0.129401
-4.019012	cook	-0.1019579
-4.019012	cooked	-0.08590339
-4.320043	cooking	-0.09923185
-4.320043	cooks	-0.1038559
-4.320043	cooperation	-0.09545011
-4.320043	coownership	-0.08715963
-4.320043	copied	-0.09545011
-4.320043	copies	-0.1043967
-4.320043	copy	-0.08642365
-4.320043	copycats	-0.1043759
-4.019012	copying	-0.1683642
-4.320043	copyrighted	-0.07271223
-4.320043	cordiality	-0.104272
-4.320043	corner	-0.1044175
-4.320043	corners	-0.08715963
-4.320043	corporate	-0.08592507
-4.320043	corpse	-0.08715963
-4.320043	corpses	-0.08642365
-4.019012	corpuscle	-0.1043759
-4.320043	correct	-0.07271223
-4.320043	correspond	-0.07271223
-3.842921	corresponds	-0.1101933
-4.019012	cosmetics	-0.1594975
-4.320043	cost	-0.08715963
-3.621072	costs	-0.07201853
-3.173914	cotton	-0.6458402
-3.320042	could	-0.1144529
-4.320043	council	-0.1043967
-4.320043	councilors	-0.08715963
-4.320043	counsellors	-0.08592507
-4.019012	count	-0.09678487
-4.320043	counteract	-0.102501
-4.320043	counterfeiting	-0.08642365
-4.320043	counters	-0.09479181
-4.320043	counting	-0.1037519
-3.320042	countries	-0.08675269
-2.939831	country	-0.03567445
-3.842921	course	-0.06406288
-4.320043	courses	-0.08642365
-3.474944	court	-0.0346207
-4.320043	courts	-0.08642365
-3.717982	cover	-0.03352088
-4.320043	coverage	-0.08592507
-4.320043	covering	-0.07271223
-4.320043	cozy	-0.1043967
-4.320043	crater	-0.08346719
-4.019012	cream	-0.08631532
-3.842921	create	-0.103377
-3.842921	created	-0.07260042
-4.320043	creates	-0.09479181
-4.019012	creation	-0.06787807
-4.320043	creative	-0.08592507
-3.842921	creditors	-0.06805892
-4.019012	crest	-0.160732
-4.320043	crimes	-0.103252
-3.842921	crisis	-0.06781024
-3.842921	criteria	-0.08403395
-4.019012	critical	-0.1043967
-4.320043	criticism	-0.08642365
-4.320043	criticizes	-0.07271223
-4.320043	croquettes	-0.09479181
-4.320043	cross	-0.1013303
-4.019012	crossed	-0.07636385
-4.320043	crossings	-0.1020206
-4.320043	crouton	-0.08642365
-4.019012	cuffs	-0.1683642
-4.320043	cuisine	-0.1008276
-4.320043	cult	-0.08715963
-3.621072	cultural	-0.1042096
-3.416952	culture	-0.1020813
-4.320043	cups	-0.104168
-4.320043	curiae	-0.1034812
-4.320043	curiosity	-0.09479181
-3.842921	current	-0.08631532
-3.842921	currently	-0.09368534
-4.320043	curricular	-0.1043967
-4.019012	curtailed	-0.1462846
-4.320043	curves	-0.09500428
-4.320043	custody	-0.1035228
-4.019012	custom	-0.1779068
-4.019012	customer	-0.1043967
-3.474944	customers	-0.09576565
-3.474944	cut	-0.2181454
-4.320043	cutback	-0.08715963
-4.320043	cycling	-0.08346719
-4.320043	cynical	-0.1044175
-4.320043	d	-0.08592507
-4.320043	d'Arenberg	-0.08642365
-4.320043	dLAN	-0.1044175
-4.019012	daily	-0.09532279
-4.320043	damage	-0.09923185
-4.019012	damaged	-0.1031686
-4.019012	dangers	-0.08581661
-4.019012	dark	-0.1011209
-4.320043	darkness	-0.08642365
-4.320043	dash	-0.08715963
-3.717982	data	-0.1033342
-4.320043	date	-0.1039184
-3.842921	dates	-0.08064418
-4.320043	dating	-0.1035228
-4.320043	daughter	-0.08642365
-3.27865	day	-0.09957478
-3.541891	days	-0.08488747
-4.320043	dcs	-0.1033978
-3.717982	de	-0.1043344
-4.320043	dead	-0.08642365
-3.842921	deadline	-0.08261566
-4.320043	deals	-0.1008276
-4.320043	death	-0.09545011
-4.320043	debating	-0.1016442
-4.320043	debt	-0.1044175
-4.320043	debtors	-0.09479181
-3.842921	debts	-0.06823969
-4.320043	debut	-0.09545011
-4.019012	decade	-0.160732
-4.320043	deceased	-0.1043136
-4.320043	decentralized	-0.1021877
-3.842921	decide	-0.06250905
-4.320043	decided	-0.1004502
-3.474944	decision	-0.06340089
-3.842921	decisions	-0.0667461
-3.842921	declaration	-0.08114885
-4.019012	declare	-0.09489807
-4.019012	declared	-0.06303523
-4.320043	declares	-0.1043967
-3.842921	decline	-0.1254412
-4.320043	decorated	-0.1008276
-4.320043	decreases	-0.1023548
-4.019012	dedicated	-0.0946643
-4.320043	deduce	-0.07271223
-4.320043	deep	-0.1044175
-4.019012	deeper	-0.07636385
-4.320043	deepest	-0.1043967
-4.320043	defeated	-0.08642365
-4.320043	defenceless	-0.1040848
-4.320043	defend	-0.104272
-4.320043	defended	-0.07271223
-4.320043	defending	-0.1044175
-3.621072	defense	-0.0630581
-4.320043	deficit	-0.09453672
-4.320043	define	-0.07271223
-4.019012	defined	-0.08614192
-4.320043	definite	-0.1044175
-4.019012	definition	-0.07780269
-3.842921	degree	-0.05813777
-4.320043	degrees	-0.08715963
-4.019012	del	-0.1043967
-4.320043	delay	-0.1044175
-4.320043	delays	-0.09545011
-4.320043	deliberation	-0.08592507
-4.320043	delicacy	-0.09479181
-3.717982	delicate	-0.2736275
-4.320043	delight	-0.07271223
-4.320043	delinquency	-0.08642365
-4.320043	deliver	-0.08592507
-4.320043	delivered	-0.1023548
-4.320043	deliveries	-0.09479181
-4.320043	delivers	-0.1044175
-4.019012	delivery	-0.08592507
-4.320043	demand	-0.1016442
-4.320043	demanded	-0.08715963
-4.320043	democracy	-0.09453672
-4.320043	democrat	-0.1044175
-4.019012	democratic	-0.1043759
-4.320043	demonstrations	-0.08715963
-4.320043	denote	-0.1032728
-4.320043	denounce	-0.09479181
-4.320043	densely	-0.1044175
-4.320043	density	-0.08592507
-4.320043	department	-0.1044175
-4.320043	departments	-0.1020206
-4.019012	depend	-0.06787807
-4.320043	dependence	-0.09479181
-4.320043	dependent	-0.1023548
-4.019012	depends	-0.102334
-4.320043	depleted	-0.1043136
-4.320043	deplores	-0.1044175
-4.019012	depreciation	-0.07711707
-4.019012	depths	-0.160732
-4.320043	descendants	-0.1043136
-4.320043	descent	-0.09479181
-4.320043	described	-0.1035853
-4.320043	describes	-0.1043136
-4.320043	descriptions	-0.07271223
-3.416952	design	-0.1709502
-4.320043	designate	-0.07271223
-4.320043	designed	-0.1016442
-4.019012	designer	-0.0867918
-4.320043	designs	-0.09545011
-4.320043	desk	-0.1043967
-4.320043	despachadores	-0.08715963
-4.019012	despite	-0.07242146
-3.842921	destination	-0.3304371
-4.320043	destined	-0.09500428
-4.019012	destroyed	-0.07705066
-4.320043	destruction	-0.1044175
-4.320043	detail	-0.1008276
-4.019012	detailed	-0.08575153
-3.416952	details	-0.1491559
-4.019012	determine	-0.1462846
-4.320043	determined	-0.1042096
-4.320043	determining	-0.1044175
-4.320043	devastated	-0.1008276
-4.320043	devastates	-0.07271223
-3.717982	develop	-0.09302436
-3.842921	developed	-0.1027723
-4.320043	developer	-0.08715963
-4.320043	developing	-0.1042304
-3.3658	development	-0.1261855
-4.320043	develops	-0.09893725
-4.320043	device	-0.08715963
-4.320043	devices	-0.08642365
-4.320043	devolo	-0.1044175
-4.320043	devotion	-0.08642365
-4.320043	di	-0.1044175
-4.320043	diagnostic	-0.1044175
-4.320043	diagrams	-0.1008276
-4.320043	dialog	-0.08642365
-4.320043	diameter	-0.1033978
-4.320043	dictatorship	-0.08642365
-3.621072	did	-0.2300357
-4.019012	die	-0.1777612
-3.842921	died	-0.06225717
-4.320043	dies	-0.1035228
-4.019012	differences	-0.1026054
-3.173914	different	-0.08442588
-4.320043	differentiating	-0.09500428
-4.320043	differently	-0.09545011
-3.320042	difficult	-0.350594
-4.320043	difficulties	-0.08642365
-4.320043	digestion	-0.1043344
-4.320043	digestive	-0.1044175
-4.320043	digitalized	-0.1044175
-4.320043	dilemma	-0.1027723
-4.320043	diluted	-0.08592507
-4.320043	diminish	-0.07271223
-4.019012	dining	-0.104272
-4.320043	dinner	-0.1035228
-4.320043	dioxide	-0.1034812
-4.019012	diplomatic	-0.1042928
-4.320043	direct	-0.07271223
-4.019012	directed	-0.09474932
-4.320043	direction	-0.07271223
-4.019012	directly	-0.09423894
-3.717982	director	-0.1191333
-4.320043	disadvantage	-0.08715963
-4.320043	disagreeable	-0.09479181
-4.320043	disappears	-0.08592507
-4.320043	discharge	-0.08592507
-4.320043	discipline	-0.1004502
-4.320043	disclosure	-0.1043967
-4.320043	discovered	-0.09545011
-4.320043	discoveries	-0.09479181
-4.019012	discovery	-0.1594975
-4.320043	discuss	-0.102501
-4.320043	discussed	-0.1021877
-4.320043	disdained	-0.08642365
-4.320043	disease	-0.09923185
-4.320043	diseases	-0.1036686
-4.320043	disgregantes	-0.1044175
-4.320043	disguising	-0.08592507
-4.019012	dish	-0.0991477
-3.842921	dishes	-0.1310621
-4.320043	disk	-0.1042304
-4.320043	disks	-0.1043759
-4.019012	dismantling	-0.05409563
-4.320043	dismissed	-0.07271223
-4.320043	displacements	-0.08715963
-4.320043	displayed	-0.103106
-4.320043	disposes	-0.08715963
-4.320043	disposition	-0.08715963
-4.320043	disproportionate	-0.1044175
-4.320043	disqualified	-0.07271223
-4.320043	disregard	-0.1042512
-3.842921	distance	-0.05658576
-3.842921	distant	-0.1041472
-4.320043	distinctive	-0.1043551
-4.019012	distinguished	-0.1033353
-4.320043	distributed	-0.08642365
-3.621072	distribution	-0.2165878
-4.019012	district	-0.08496968
-4.320043	diverse	-0.103252
-4.320043	divide	-0.1035853
-4.320043	divisions	-0.1016442
-2.958315	do	-0.294016
-4.019012	doctorate	-0.1769702
-4.019012	document	-0.1036686
-4.019012	documentation	-0.1594975
-4.320043	documented	-0.08592507
-3.842921	documents	-0.1160363
-3.143951	does	-0.9456666
-4.320043	dog	-0.09479181
-3.621072	doing	-0.09580721
-4.019012	dollar	-0.08635866
-3.842921	dollars	-0.08388144
-4.019012	domestic	-0.1042512
-4.320043	donate	-0.09893725
-4.019012	donations	-0.09193476
-3.621072	done	-0.07607552
-4.320043	door	-0.1016442
-4.320043	dose	-0.08715963
-4.320043	double	-0.09500428
-4.019012	down	-0.1462846
-4.320043	downtown	-0.1042512
-4.320043	dozen	-0.08715963
-4.019012	dozens	-0.08713801
-4.320043	draft	-0.08715963
-4.320043	drafts	-0.08715963
-4.320043	drama	-0.1044175
-4.019012	dramatic	-0.1043344
-4.320043	dramatically	-0.1043967
-4.320043	drastic	-0.1039808
-4.320043	draught	-0.1021877
-4.019012	draw	-0.08633699
-4.320043	drawing	-0.1044175
-4.320043	drawn	-0.1035853
-4.320043	drawstring	-0.1043136
-4.320043	dream	-0.1043136
-4.019012	dress	-0.06787807
-4.320043	dresses	-0.09545011
-4.019012	dressmaker	-0.06710865
-4.320043	drink	-0.08592507
-4.320043	driver	-0.1044175
-4.320043	drivers	-0.1020206
-4.320043	drives	-0.1044175
-4.320043	driving	-0.1023548
-4.320043	drops	-0.1040848
-4.019012	dubious	-0.1594975
-4.019012	due	-0.1685767
-4.320043	duration	-0.08715963
-3.541891	during	-0.1763252
-4.320043	dust	-0.08592507
-4.019012	duties	-0.09727115
-4.320043	duty	-0.1016442
-4.320043	dwarf	-0.1042928
-4.320043	dynamics	-0.08715963
-4.019012	dynamite	-0.1683642
-4.320043	e	-0.1013303
-4.320043	e.g.	-0.1044175
-3.842921	each	-0.09396222
-4.320043	eagerness	-0.09500428
-4.320043	ear	-0.1020206
-4.320043	earn	-0.1043967
-4.019012	earth	-0.1779691
-4.320043	earthly	-0.1043967
-4.019012	easier	-0.09379186
-3.842921	easy	-0.1492618
-4.019012	eaten	-0.1740226
-4.320043	echo	-0.1036686
-4.320043	eclectic	-0.1044175
-4.320043	ecolocation	-0.1044175
-4.019012	ecological	-0.1043344
-3.3658	economic	-0.1150215
-4.019012	economical	-0.1043344
-4.019012	economically	-0.08640199
-4.320043	ecosystems	-0.08642365
-4.320043	ecotoxicity	-0.09479181
-4.019012	editions	-0.08590339
-4.019012	educate	-0.1775116
-3.206099	education	-0.2644197
-3.717982	educational	-0.1393981
-4.320043	educations	-0.08592507
-3.842921	effect	-0.06699539
-4.019012	effective	-0.08603352
-4.019012	effects	-0.08562131
-4.019012	efficiency	-0.08099531
-4.320043	efficient	-0.08642365
-4.320043	effort	-0.09500428
-4.320043	egislative	-0.09479181
-3.717982	eight	-0.1041056
-4.320043	eighties	-0.1044175
-3.717982	either	-0.1300857
-3.320042	elastic	-0.1588999
-4.019012	elbow	-0.09489807
-4.320043	elderly	-0.1037519
-4.320043	elected	-0.103106
-4.320043	election	-0.08592507
-4.320043	elections	-0.08642365
-4.320043	electoral	-0.1044175
-3.842921	electronic	-0.1518897
-4.320043	electrons	-0.09479181
-3.541891	elegance	-0.1055913
-4.320043	elegant	-0.1043344
-3.717982	element	-0.126094
-4.019012	elementary	-0.1779691
-4.019012	elements	-0.08620696
-4.320043	elevation	-0.1043759
-4.320043	elevations	-0.1041264
-4.320043	eleven	-0.1043344
-4.320043	elimination	-0.08715963
-4.320043	elpais.com	-0.08346719
-4.320043	elsewhere	-0.08642365
-4.320043	embarrassing	-0.1043759
-3.842921	emblem	-0.06394881
-4.320043	embodied	-0.1033145
-3.717982	embossed	-0.313064
-4.320043	embroidered	-0.1043967
-4.320043	emission	-0.1043967
-4.320043	emit	-0.07271223
-4.320043	emitted	-0.1016442
-4.320043	emotion	-0.1020206
-4.320043	emotional	-0.1042512
-3.717982	employees	-0.0664513
-4.320043	empowered	-0.103252
-4.320043	empty	-0.1043551
-4.320043	en	-0.1044175
-4.320043	enabled	-0.1016442
-4.320043	enables	-0.1023131
-4.320043	enamelled	-0.1043967
-4.320043	enclosed	-0.1043967
-4.320043	enclosure	-0.1004502
-4.320043	encolumnado	-0.1044175
-4.320043	encompasses	-0.07271223
-4.320043	encourage	-0.1037519
-4.320043	encouragement	-0.08642365
-3.474944	end	-0.1763391
-4.019012	endorsement	-0.160732
-4.320043	endowment	-0.08715963
-4.320043	ends	-0.1035853
-4.320043	endurance	-0.09479181
-4.320043	energies	-0.08592507
-3.474944	energy	-0.1237403
-4.320043	enforceable	-0.1044175
-4.320043	enforced	-0.103106
-3.717982	engine	-0.06828487
-3.842921	engineer	-0.1155166
-4.320043	engineering	-0.08642365
-4.019012	engineers	-0.08590339
-4.019012	engraving	-0.1599961
-4.320043	engravings	-0.1004502
-4.320043	enhance	-0.07271223
-4.320043	enhanced	-0.1008276
-4.320043	enhancement	-0.1043551
-4.320043	enhances	-0.1037102
-4.320043	enharina	-0.07271223
-3.717982	enjoy	-0.08794653
-4.019012	enjoyed	-0.08514354
-4.320043	enjoying	-0.1032728
-4.320043	enlightened	-0.1043967
-4.019012	enormous	-0.08640199
-4.320043	ensemble	-0.08715963
-4.320043	ensure	-0.1004502
-3.717982	ensures	-0.1035376
-4.320043	entered	-0.1041056
-4.320043	enterprise	-0.1027515
-4.019012	enterprises	-0.08514354
-4.320043	entertaining	-0.08592507
-4.320043	entertains	-0.1008276
-4.019012	entirely	-0.1778028
-3.717982	entrance	-0.111594
-4.320043	entretengo	-0.1008276
-4.320043	entries	-0.08715963
-4.320043	entry	-0.1034812
-4.019012	entschuldigend	-0.1594975
-3.27865	environment	-0.1826358
-3.717982	environmental	-0.0946643
-4.320043	environments	-0.08592507
-4.320043	enzymes	-0.08592507
-4.320043	equal	-0.1042304
-4.320043	equalization	-0.08715963
-4.320043	equip	-0.1041888
-4.019012	era	-0.160732
-4.320043	escaped	-0.1044175
-4.019012	especially	-0.09534401
-4.019012	essential	-0.08351082
-3.717982	establishes	-0.1419928
-4.019012	establishments	-0.08176245
-4.019012	estate	-0.104168
-4.019012	esteem	-0.09071371
-4.320043	estimated	-0.1004502
-4.320043	estimates	-0.1004502
-4.019012	estranged	-0.1690225
-4.019012	etc.	-0.08546935
-4.320043	eternal	-0.1044175
-4.320043	ethnic	-0.1044175
-3.621072	euro	-0.2331722
-3.3658	euros	-0.1543334
-4.320043	evaluation	-0.09923185
-3.206099	even	-0.07884631
-4.019012	event	-0.08300888
-4.019012	ever	-0.1779691
-3.089593	every	-0.1111004
-4.019012	everyday	-0.1777612
-3.717982	everything	-0.1321842
-4.019012	evidence	-0.1740226
-4.320043	evident	-0.1043759
-4.320043	evocation	-0.09500428
-4.320043	evolution	-0.08715963
-4.320043	evolves	-0.08642365
-4.320043	ex	-0.1043136
-4.320043	exact	-0.1043759
-4.320043	exaggerate	-0.1041472
-4.320043	examined	-0.1044175
-4.320043	examining	-0.07271223
-3.474944	example	-0.5269755
-4.320043	examples	-0.1020206
-4.019012	exceed	-0.1462846
-4.320043	excellent	-0.1043967
-4.320043	excellently	-0.1044175
-4.320043	except	-0.1004502
-4.320043	exchange	-0.08592507
-4.320043	exchanged	-0.1032936
-4.320043	exciting	-0.1016442
-4.320043	excluding	-0.08715963
-3.842921	exclusive	-0.1038351
-4.320043	exclusively	-0.1044175
-4.019012	execute	-0.05330137
-4.320043	executed	-0.1033978
-4.320043	execution	-0.08642365
-3.717982	executive	-0.2556718
-4.320043	executives	-0.08642365
-4.320043	executor	-0.1043551
-4.019012	exercise	-0.160732
-4.320043	exhausted	-0.1043967
-3.842921	exhibition	-0.07676277
-4.019012	exist	-0.09457926
-4.320043	existed	-0.08642365
-3.842921	existence	-0.1160363
-4.320043	existent	-0.1041056
-3.842921	exists	-0.09511048
-4.019012	expanded	-0.1594975
-4.320043	expansion	-0.08715963
-4.320043	expect	-0.1039184
-4.320043	expectations	-0.1027723
-4.320043	expected	-0.08642365
-4.019012	expense	-0.08713801
-4.019012	expenses	-0.0861636
-3.842921	expensive	-0.09460052
-4.320043	experience	-0.1044175
-4.320043	experiment	-0.1008276
-4.320043	experimentation	-0.08715963
-4.320043	expert	-0.1016442
-3.842921	experts	-0.1420264
-3.842921	explain	-0.1201271
-3.842921	explained	-0.06565662
-4.320043	explains	-0.09893725
-4.019012	exploitation	-0.07402947
-4.019012	exploration	-0.1683642
-4.320043	exploratory	-0.1044175
-4.019012	explore	-0.1462846
-4.019012	explosion	-0.07780269
-4.320043	expose	-0.1044175
-4.320043	exposed	-0.09500428
-4.019012	express	-0.07266752
-4.320043	expressed	-0.1043344
-4.320043	expression	-0.09545011
-4.320043	expressly	-0.1043551
-4.320043	exquisite	-0.104272
-4.320043	exquisitely	-0.07271223
-4.320043	extend	-0.07271223
-4.019012	extension	-0.1016233
-4.320043	extensive	-0.1042512
-4.019012	extent	-0.05276325
-4.320043	external	-0.1043551
-4.320043	extorting	-0.1023548
-4.320043	extra	-0.1013303
-4.320043	extract	-0.1044175
-4.320043	extracting	-0.08346719
-4.320043	extraction	-0.09479181
-4.320043	extrajudicially	-0.08642365
-4.320043	extraordinary	-0.1043967
-4.019012	extremely	-0.1043344
-4.019012	eyelet	-0.1022504
-4.019012	f	-0.07251096
-4.019012	fabric	-0.1040224
-4.019012	fabulous	-0.1779691
-4.320043	facade	-0.08592507
-4.019012	face	-0.08635866
-3.842921	faced	-0.1028141
-3.842921	facilitate	-0.07213049
-4.019012	facilitating	-0.06232588
-3.320042	fact	-0.3663644
-4.320043	faction	-0.1043759
-4.320043	facto	-0.09453672
-4.320043	factor	-0.08642365
-4.019012	factors	-0.08226582
-4.019012	facts	-0.09071371
-4.320043	failed	-0.08592507
-4.320043	failures	-0.09479181
-4.019012	fair	-0.09432404
-4.320043	fairness	-0.1016442
-4.320043	faithful	-0.1044175
-4.019012	fall	-0.08577322
-4.320043	false	-0.1043967
-3.27865	family	-0.0797106
-4.320043	famous	-0.1016442
-4.019012	fantasy	-0.0765412
-3.717982	far	-0.2725867
-4.019012	farm	-0.1594975
-4.320043	farmer	-0.1044175
-4.320043	farmhouses	-0.08642365
-4.320043	fascination	-0.1008276
-4.019012	fashion	-0.1043759
-4.320043	fast	-0.1044175
-4.019012	faster	-0.1775532
-4.320043	fastest	-0.1043967
-4.320043	fat	-0.08642365
-4.320043	father	-0.1043344
-4.320043	fathered	-0.09893725
-4.019012	fathers	-0.1035228
-4.019012	favor	-0.05409563
-4.320043	favourite	-0.1034187
-4.019012	fear	-0.08300888
-4.019012	fearful	-0.1599961
-4.320043	feature	-0.1023548
-4.019012	federal	-0.1043759
-4.320043	federation	-0.1037727
-4.019012	fee	-0.09769356
-4.320043	feedbacks	-0.1023548
-4.019012	feel	-0.1041472
-4.320043	feelings	-0.1043136
-4.320043	felt	-0.1044175
-4.320043	female	-0.1044175
-4.320043	feminine	-0.1044175
-3.842921	femininity	-0.04824495
-3.541891	few	-0.1042096
-4.320043	fictitious	-0.1044175
-4.019012	field	-0.06839781
-3.842921	fields	-0.07700638
-4.320043	fiesta	-0.09479181
-4.320043	fifteen	-0.1038976
-4.019012	fifth	-0.1032311
-4.320043	fifties	-0.1043967
-3.842921	fight	-0.1306474
-4.320043	fighting	-0.1040848
-4.019012	figure	-0.08592507
-4.019012	file	-0.08318353
-4.320043	files	-0.1027515
-4.320043	filled	-0.09500428
-3.842921	film	-0.09532279
-4.019012	films	-0.08407752
-4.019012	final	-0.1043967
-4.320043	finale	-0.08715963
-4.019012	finally	-0.1037935
-3.842921	financial	-0.1042512
-4.019012	financing	-0.07711707
-4.019012	find	-0.1015396
-4.019012	finding	-0.104168
-3.717982	findings	-0.1349665
-4.320043	finds	-0.1032728
-4.019012	finish	-0.07585359
-4.019012	finished	-0.08318353
-4.320043	finishes	-0.09545011
-3.717982	finishing	-0.1040016
-4.320043	fire	-0.1044175
-4.019012	fireworks	-0.1594975
-4.019012	firm	-0.1043552
-4.019012	firms	-0.1004292
-2.997823	first	-0.07835636
-4.320043	fish	-0.08642365
-4.320043	fishing	-0.1044175
-3.717982	fists	-0.3035215
-4.320043	fit	-0.1008276
-3.206099	five	-0.09111714
-4.320043	fixed	-0.09500428
-4.320043	flaming	-0.1008276
-3.842921	flap	-0.1511197
-4.320043	flaps	-0.09545011
-4.320043	flats	-0.09500428
-4.320043	flee	-0.09500428
-4.019012	flight	-0.08577322
-4.320043	flood	-0.1044175
-3.842921	floral	-0.348888
-4.320043	flow	-0.08715963
-4.320043	flowers	-0.1044175
-4.320043	flowing	-0.1035228
-4.320043	fluid	-0.08592507
-3.621072	fluted	-0.262212
-4.320043	fly	-0.1044175
-4.019012	flyers	-0.08916642
-4.320043	fog	-0.07271223
-4.320043	folder	-0.1008276
-3.842921	follow	-0.143428
-4.320043	followed	-0.103106
-4.320043	follower	-0.1043344
-4.019012	followers	-0.1023131
-3.320042	following	-0.08476058
-4.320043	follows	-0.1023131
-3.842921	foods	-0.06624709
-4.320043	fooling	-0.1043344
-2.192938	for	-0.2123154
-4.019012	force	-0.1599961
-4.320043	foregone	-0.1044175
-3.541891	foreign	-0.10933
-4.320043	foreigners	-0.09500428
-4.019012	forget	-0.05330137
-3.541891	form	-0.03864942
-3.842921	formation	-0.3316716
-3.842921	formed	-0.1321732
-4.019012	former	-0.1043759
-3.717982	forms	-0.04656214
-4.320043	formulas	-0.103106
-4.320043	formulation	-0.09479181
-4.320043	fort	-0.1044175
-4.320043	forth	-0.09545011
-4.320043	forty	-0.1013303
-4.320043	forum	-0.104272
-4.320043	forums	-0.08642365
-4.320043	forward	-0.09545011
-4.320043	fossil	-0.1044175
-4.320043	fought	-0.1040848
-3.541891	found	-0.09957457
-4.320043	foundation	-0.1042304
-4.320043	founded	-0.09545011
-3.842921	four	-0.1038768
-3.842921	fourth	-0.08568642
-4.320043	frame	-0.08715963
-4.320043	framework	-0.08715963
-4.320043	franchise	-0.08642365
-4.320043	fraught	-0.1008276
-3.842921	free	-0.08586
-4.019012	freedom	-0.08620695
-4.320043	frenzy	-0.08715963
-3.842921	frequent	-0.08470875
-4.019012	fresh	-0.0946643
-4.019012	friend	-0.08668356
-3.621072	friends	-0.03797623
-2.621072	from	-0.2786969
-3.320042	front	-0.1774749
-4.320043	fronts	-0.08642365
-4.320043	fruit	-0.08715963
-4.320043	fry	-0.1039184
-4.019012	fuel	-0.1599961
-4.320043	fuels	-0.08642365
-3.416952	full	-0.1756291
-4.019012	fully	-0.1779483
-4.320043	fun	-0.104064
-4.320043	function	-0.1044175
-4.019012	functionality	-0.1683642
-3.842921	functioning	-0.07709493
-3.842921	funds	-0.08757038
-4.019012	funny	-0.1594975
-4.320043	further	-0.1043967
-4.320043	fusion	-0.1040848
-3.842921	future	-0.06785546
-4.320043	futuristic	-0.08592507
-4.320043	gain	-0.1043967
-4.320043	gained	-0.1042304
-4.320043	gains	-0.08715963
-3.842921	galaxies	-0.1040432
-3.842921	galaxy	-0.09174219
-3.842921	game	-0.08635866
-4.019012	games	-0.1599961
-4.320043	ganglionic	-0.1044175
-3.842921	gaps	-0.1494082
-4.320043	garde	-0.1044175
-3.717982	garment	-0.07758164
-3.621072	garments	-0.09716177
-3.717982	gas	-0.1022255
-4.019012	gases	-0.06839781
-4.320043	gastronomic	-0.1043551
-4.320043	gastronomy	-0.1044175
-4.320043	gatherings	-0.1043344
-4.320043	gauze	-0.09545011
-4.019012	gave	-0.1021042
-4.320043	gelificante	-0.1044175
-4.320043	gender	-0.1044175
-4.320043	gene	-0.1044175
-3.3658	general	-0.1175518
-4.320043	generally	-0.07271223
-4.320043	generosity	-0.09479181
-4.320043	genital	-0.1044175
-4.320043	genres	-0.09479181
-3.541891	get	-0.08702983
-4.320043	gets	-0.1033145
-4.320043	gift	-0.1004502
-4.019012	gigantic	-0.1042096
-4.320043	girl	-0.1033978
-4.019012	girls	-0.07705066
-4.320043	girly	-0.1044175
-3.320042	give	-0.08099581
-3.621072	given	-0.08955377
-4.019012	gives	-0.05276325
-4.320043	giving	-0.1043967
-4.320043	glad	-0.1038976
-4.320043	gladly	-0.1044175
-4.320043	glanced	-0.1035228
-3.842921	glass	-0.08385964
-4.320043	glasses	-0.1027515
-4.320043	glazed	-0.1042928
-4.019012	global	-0.1043759
-4.019012	globe	-0.1012047
-4.320043	glorious	-0.1043967
-3.474944	go	-0.0953674
-4.019012	goals	-0.160732
-4.320043	godchildren	-0.08642365
-4.320043	godfathers	-0.09545011
-4.320043	goes	-0.08715963
-3.717982	going	-0.3037339
-4.019012	gold	-0.0944304
-4.320043	golf	-0.1043551
-3.621072	good	-0.08583832
-4.320043	goodbye	-0.09500428
-4.019012	goods	-0.09472807
-4.320043	gourmet	-0.08592507
-3.416952	government	-0.08682844
-3.842921	governments	-0.1043136
-4.320043	governors	-0.08715963
-4.320043	graduates	-0.09479181
-4.320043	graduation	-0.1032936
-4.320043	grain	-0.1043967
-4.320043	grand	-0.1044175
-4.320043	granted	-0.07271223
-4.320043	graphic	-0.1043967
-3.541891	great	-0.1040432
-4.320043	greater	-0.1042512
-4.019012	green	-0.09464304
-4.320043	greenhouse	-0.1043967
-4.320043	greetings	-0.1021877
-4.320043	greets	-0.07271223
-4.320043	grim	-0.1013303
-4.320043	ground	-0.08592507
-3.474944	group	-0.1177847
-4.019012	groups	-0.06787807
-4.320043	grow	-0.1044175
-4.019012	growing	-0.08638033
-4.019012	growth	-0.09259739
-3.842921	guarantee	-0.0944304
-4.320043	guarantees	-0.08642365
-4.320043	guarantors	-0.08715963
-4.320043	guest	-0.08592507
-4.019012	guests	-0.09447294
-4.019012	guide	-0.08370706
-4.320043	guided	-0.103106
-4.320043	guidelines	-0.1016442
-4.320043	guy	-0.104168
-4.320043	habits	-0.08642365
-2.842921	had	-0.08431899
-4.320043	hair	-0.1008276
-3.842921	half	-0.09574708
-4.320043	hall	-0.1034812
-4.320043	halo	-0.08715963
-3.621072	hand	-0.08068809
-3.842921	handled	-0.09457926
-4.320043	happens	-0.09545011
-4.320043	happy	-0.08642365
-4.320043	haptics	-0.09479181
-4.320043	harangues	-0.08715963
-4.320043	harbor	-0.1044175
-4.320043	hard	-0.08592507
-4.320043	hardly	-0.09893725
-4.320043	harmonious	-0.08642365
-4.019012	harvest	-0.09872671
-2.416952	has	-0.2207997
-4.320043	hat	-0.1043967
-2.468784	have	-0.1937501
-3.416952	having	-0.1532248
-2.814892	he	-0.2284904
-3.621072	head	-0.1042047
-4.320043	headlines	-0.08715963
-4.320043	headquarters	-0.09545011
-4.320043	headscarf	-0.1043136
-3.541891	health	-0.0942602
-4.320043	healthcare	-0.1042928
-4.019012	hearing	-0.1690225
-4.320043	heart	-0.1043967
-4.320043	hectare	-0.1043967
-4.019012	height	-0.07711707
-4.320043	held	-0.09893725
-4.320043	hell	-0.08346719
-3.541891	help	-0.1230479
-4.019012	helps	-0.09483433
-3.474944	her	-0.09468555
-4.320043	herbicide	-0.1044175
-3.240861	here	-0.129386
-3.717982	hidden	-0.08566472
-4.019012	hides	-0.06679143
-3.474944	high	-0.1233864
-4.320043	higher	-0.1044175
-4.320043	hills	-0.08592507
-3.320042	him	-0.06631532
-4.019012	himself	-0.1037102
-4.320043	hire	-0.08715963
-4.320043	hired	-0.08592507
-4.320043	hiring	-0.08715963
-2.801528	his	-0.1041607
-4.320043	histories	-0.08642365
-3.474944	history	-0.140028
-4.019012	hit	-0.09872671
-4.320043	hoary	-0.1043967
-4.320043	hold	-0.1044175
-4.320043	holder	-0.07271223
-3.717982	holds	-0.2412413
-3.842921	hole	-0.08612025
-3.717982	home	-0.06218845
-4.320043	hominid	-0.1043967
-4.320043	homogeneously	-0.1044175
-4.320043	hope	-0.1004502
-4.019012	hopelessly	-0.1779691
-4.320043	hospital	-0.09545011
-4.320043	host	-0.1043344
-4.320043	hostile	-0.1042304
-4.320043	hosting	-0.1033145
-4.019012	hotel	-0.08713801
-3.842921	hours	-0.05730455
-3.240861	house	-0.08890476
-4.019012	houses	-0.09838963
-4.320043	housing	-0.1016442
-3.541891	how	-0.1151653
-3.06477	however	-0.6456636
-4.320043	hr	-0.1043967
-3.474944	human	-0.192517
-4.019012	humanism	-0.07585359
-4.320043	humidity	-0.09545011
-4.320043	humiliating	-0.103252
-3.717982	hundred	-0.08318353
-4.320043	hundreds	-0.08715963
-4.320043	hunger	-0.1043967
-4.320043	hungry	-0.1041056
-4.320043	hut	-0.1008276
-4.320043	hybrid	-0.1043551
-4.320043	hypertextuality	-0.09479181
-4.320043	hypnosis	-0.08715963
-4.320043	hypotheses	-0.1020206
-4.320043	i.e.	-0.07271223
-4.019012	iPad	-0.1683642
-4.320043	iPhone	-0.09923185
-3.621072	ice	-0.06586111
-4.320043	iceberg	-0.1034187
-4.019012	idea	-0.08536078
-4.320043	ideal	-0.1044175
-3.842921	ideas	-0.1033145
-4.320043	identical	-0.1042304
-4.320043	identically	-0.1044175
-4.320043	identification	-0.1041264
-4.019012	identified	-0.1777612
-4.320043	identity	-0.08642365
-4.320043	ideology	-0.08715963
-3.621072	if	-0.1294076
-4.320043	ignition	-0.08592507
-4.320043	ignore	-0.09893725
-4.320043	ignores	-0.07271223
-4.320043	illegal	-0.1043967
-4.320043	illness	-0.1037727
-4.019012	illnesses	-0.09977843
-4.320043	illustration	-0.08642365
-3.842921	image	-0.08607688
-4.019012	images	-0.1768244
-4.320043	imitation	-0.1043967
-4.320043	imitators	-0.1044175
-4.320043	immediateness	-0.1036686
-4.320043	immense	-0.1044175
-4.019012	immigration	-0.09491931
-4.320043	immortal	-0.1043967
-4.320043	immortality	-0.08642365
-4.019012	impact	-0.09489807
-4.019012	impacts	-0.08559961
-4.320043	impersonal	-0.09453672
-4.320043	implement	-0.08592507
-4.320043	implementation	-0.08715963
-4.320043	implicate	-0.07271223
-4.320043	implicit	-0.09545011
-4.320043	imply	-0.1044175
-4.320043	import	-0.1036894
-4.019012	importance	-0.08425175
-3.27865	important	-0.09470486
-4.019012	importantly	-0.06710865
-4.320043	imported	-0.09545011
-4.019012	imposed	-0.1022713
-4.019012	impossible	-0.07607551
-4.320043	impression	-0.1036061
-4.320043	impressive	-0.08642365
-4.320043	improvable	-0.1043759
-3.842921	improve	-0.1203284
-4.019012	improvement	-0.06531559
-4.320043	improvements	-0.103252
-1.688599	in	-0.3123301
-4.320043	inaugurates	-0.07271223
-4.320043	incendiary	-0.1044175
-4.320043	inclination	-0.09479181
-4.320043	include	-0.1036686
-3.842921	included	-0.1004018
-3.842921	includes	-0.07148071
-3.621072	including	-0.2308794
-4.320043	inconsistencies	-0.08642365
-4.019012	incorporates	-0.1035853
-4.019012	increase	-0.0954289
-3.842921	increased	-0.03241827
-4.320043	increases	-0.08715963
-3.717982	increasing	-0.07244384
-4.019012	increasingly	-0.103502
-4.320043	indeed	-0.07271223
-3.717982	independent	-0.1121479
-4.320043	independently	-0.08715963
-4.019012	indicate	-0.09809446
-3.842921	indicated	-0.1027932
-4.320043	indicates	-0.1004502
-4.320043	indicating	-0.1004502
-4.019012	indispensable	-0.08633699
-4.320043	individual	-0.1038559
-4.320043	individuals	-0.09923185
-4.320043	industrial	-0.1043551
-3.717982	industry	-0.1022935
-4.019012	ineffective	-0.104272
-4.320043	inefficient	-0.1043344
-4.320043	ineluctable	-0.08642365
-4.320043	inevitable	-0.1044175
-4.320043	inexpensive	-0.1043136
-3.842921	infected	-0.1302979
-4.320043	infection	-0.08592507
-3.621072	infections	-0.1142237
-4.320043	infectious	-0.1044175
-4.320043	infinite	-0.1044175
-4.320043	influence	-0.1023548
-4.320043	inform	-0.08592507
-3.416952	information	-0.02364534
-3.842921	informed	-0.1099644
-4.320043	infrared	-0.1043967
-4.320043	infringed	-0.1023548
-4.320043	infringing	-0.1023548
-4.320043	inhabitable	-0.08642365
-3.842921	inhabitant	-0.1017279
-4.320043	inhabitants	-0.08715963
-4.320043	inheritance	-0.08642365
-4.019012	initial	-0.1043967
-4.320043	initially	-0.1044175
-4.320043	initials	-0.09545011
-4.320043	initiated	-0.1032728
-4.320043	injured	-0.1043967
-4.320043	injury	-0.1035228
-3.3658	inner	-1.05839
-4.320043	innovation	-0.1035228
-4.320043	innumerable	-0.1044175
-4.320043	inscribed	-0.09545011
-3.842921	inside	-0.08638033
-4.320043	insight	-0.1041056
-4.019012	insights	-0.09372795
-4.019012	insolvency	-0.08696494
-4.320043	inspire	-0.102501
-4.320043	inspired	-0.103106
-4.320043	install	-0.09545011
-4.320043	instances	-0.08592507
-4.320043	instantly	-0.1043759
-4.019012	instead	-0.1022922
-3.842921	institute	-0.1402359
-4.320043	instituted	-0.08592507
-4.320043	institutional	-0.09479181
-4.019012	institutions	-0.1004292
-4.320043	instruction	-0.1013303
-4.019012	insulting	-0.1773243
-4.320043	insults	-0.09479181
-4.019012	insurance	-0.08099531
-4.019012	insurances	-0.07636385
-4.320043	integral	-0.1043551
-4.320043	integrant	-0.08715963
-3.842921	integrated	-0.1040432
-4.320043	integrates	-0.1043551
-4.019012	intellectual	-0.1779068
-4.320043	intelligent	-0.1042512
-4.320043	intend	-0.09500428
-4.320043	intends	-0.09500428
-4.320043	intensity	-0.09479181
-4.019012	intention	-0.1021669
-4.320043	interact	-0.1008276
-4.320043	intercompanies	-0.08592507
-4.320043	intercompany	-0.1043759
-4.320043	interconnected	-0.1043967
-4.019012	interest	-0.09423894
-4.019012	interesting	-0.07658552
-3.3658	interests	-0.04708607
-4.320043	interfaces	-0.1041264
-3.474944	interior	-0.1247539
-4.320043	interiors	-0.08642365
-4.320043	intermediate	-0.1044175
-3.416952	internal	-0.2732115
-3.3658	international	-0.104064
-4.320043	internet	-0.1043551
-4.320043	interrelation	-0.08715963
-4.320043	interrupt	-0.1043759
-4.320043	interval	-0.08642365
-4.320043	interviewees	-0.08642365
-4.320043	intimidate	-0.08642365
-3.115922	into	-0.3189664
-4.320043	invasion	-0.08715963
-4.320043	invented	-0.09545011
-4.320043	invert	-0.1043967
-4.320043	invest	-0.09545011
-4.320043	investee	-0.104272
-4.320043	investigate	-0.07271223
-4.320043	investigated	-0.1043967
-4.320043	investigating	-0.104272
-4.019012	investigation	-0.1594975
-4.320043	investment	-0.1042512
-3.842921	investments	-0.05809152
-4.320043	investors	-0.1036061
-4.019012	invitation	-0.1776572
-4.019012	invited	-0.1685767
-4.320043	irresistibly	-0.1044175
-4.320043	irrigated	-0.1043967
-1.923843	is	-0.1138361
-4.019012	island	-0.07780269
-4.320043	isolated	-0.1044175
-3.842921	issue	-0.06658739
-4.019012	issues	-0.08143384
-2.311442	it	-0.1906548
-2.571854	its	-0.1068177
-3.416952	itself	-0.1097052
-4.320043	jacket	-0.1008276
-4.320043	jargon	-0.1043967
-4.320043	jelly	-0.08592507
-4.320043	jersey	-0.08592507
-4.320043	job	-0.104272
-4.019012	jobs	-0.0765412
-4.320043	journal	-0.1041056
-4.019012	journalist	-0.08536078
-4.320043	journalists	-0.1043967
-4.320043	jovial	-0.1044175
-4.019012	joy	-0.08340175
-4.320043	judge	-0.08715963
-4.320043	judged	-0.1042096
-4.320043	judgement	-0.1044175
-4.019012	judges	-0.08590339
-4.320043	judgment	-0.1004502
-4.320043	judgments	-0.09479181
-4.320043	juices	-0.08592507
-4.320043	jump	-0.1043344
-4.320043	jungle	-0.1041888
-3.621072	just	-0.0662244
-4.320043	keenest	-0.104272
-4.019012	keep	-0.1041472
-4.320043	keeping	-0.07271223
-4.320043	keeps	-0.1043759
-3.717982	key	-0.09472807
-4.320043	keys	-0.08715963
-4.320043	kills	-0.1042304
-4.320043	kilogram	-0.08715963
-4.019012	kilograms	-0.06787807
-4.019012	kilometers	-0.1033145
-3.842921	kilos	-0.1155166
-4.019012	kind	-0.09921081
-4.320043	kindergarten	-0.1035853
-3.842921	kinds	-0.1012675
-4.019012	king	-0.08586
-3.842921	kitchen	-0.05790648
-4.320043	knee	-0.1044175
-3.842921	knew	-0.09973641
-4.320043	knot	-0.1021877
-4.320043	knotted	-0.08592507
-3.541891	know	-0.1016977
-4.320043	knowledge	-0.08715963
-3.3658	known	-0.1545209
-4.320043	knows	-0.1004502
-3.842921	l	-0.1016024
-4.320043	label	-0.1039184
-4.320043	labels	-0.1043551
-3.842921	laboratory	-0.06658739
-4.320043	laborious	-0.08592507
-4.019012	lack	-0.06839781
-3.842921	lacking	-0.1430462
-4.320043	laden	-0.1042304
-4.320043	lady	-0.1008276
-4.320043	laments	-0.09545011
-4.320043	lamps	-0.1044175
-4.320043	land	-0.1044175
-4.019012	lands	-0.08635866
-4.320043	landscape	-0.1035228
-4.320043	lanes	-0.1043967
-3.621072	language	-0.06360645
-4.320043	languages	-0.1043551
-3.717982	large	-0.1041472
-4.019012	larger	-0.1779483
-3.621072	largest	-0.05786021
-4.019012	last	-0.1040848
-4.019012	latches	-0.09214862
-4.019012	later	-0.09434532
-4.320043	latest	-0.1044175
-4.019012	latter	-0.08559961
-4.320043	launching	-0.1044175
-4.019012	launder	-0.1462846
-3.621072	law	-0.093881
-4.320043	lawfulness	-0.08715963
-3.842921	laws	-0.1315417
-4.320043	lawsuit	-0.1008276
-3.842921	lawyer	-0.07771428
-3.842921	layer	-0.123714
-4.320043	laying	-0.1040848
-3.842921	lead	-0.06556571
-3.842921	leader	-0.1037311
-4.320043	leaders	-0.08592507
-4.019012	leadership	-0.08206892
-3.842921	leading	-0.05323122
-4.320043	leadingly	-0.1021877
-4.320043	leads	-0.1043136
-4.320043	leagues	-0.1004502
-4.320043	leaned	-0.09500428
-4.320043	learn	-0.1044175
-4.320043	learned	-0.1023131
-4.019012	learning	-0.07711707
-3.717982	least	-0.07134615
-4.320043	leave	-0.1043551
-4.320043	leaves	-0.1043344
-4.320043	left	-0.09479181
-3.621072	legal	-0.08572983
-4.019012	legality	-0.07636385
-4.320043	legally	-0.1044175
-4.320043	legendary	-0.1043136
-4.019012	les	-0.1043552
-3.621072	less	-0.1037311
-3.842921	lesson	-0.1331947
-4.019012	let	-0.104168
-4.320043	letters	-0.09545011
-4.320043	lettuce	-0.1044175
-3.842921	level	-0.06837521
-4.019012	levels	-0.08629365
-4.019012	liability	-0.08705148
-4.320043	liberalization	-0.08715963
-4.320043	liberals	-0.08592507
-4.320043	libraries	-0.08592507
-3.717982	library	-0.100523
-4.320043	licenses	-0.1029601
-4.320043	lie	-0.1043551
-4.019012	lies	-0.09891621
-3.240861	life	-0.123338
-4.019012	lifting	-0.1771577
-3.474944	light	-0.1836033
-4.320043	lightly	-0.09923185
-4.320043	lightweight	-0.09479181
-3.173914	like	-0.2625601
-4.320043	limb	-0.08592507
-4.019012	limit	-0.1042512
-3.842921	limited	-0.1339538
-3.717982	line	-0.07248859
-3.621072	linen	-0.1863601
-4.019012	lines	-0.1683642
-3.27865	lining	-1.126927
-4.019012	linked	-0.0946643
-4.320043	liquefied	-0.1043967
-4.019012	liquid	-0.1032103
-4.320043	liquidation	-0.09923185
-4.320043	liquidators	-0.1026054
-4.320043	list	-0.08715963
-4.320043	listed	-0.103106
-4.320043	literary	-0.1043136
-4.320043	literature	-0.1044175
-3.717982	little	-0.1041888
-3.474944	live	-0.1892805
-4.320043	liven	-0.1035853
-4.320043	liver	-0.1044175
-3.541891	lives	-0.08988981
-3.717982	living	-0.1005341
-4.320043	loaded	-0.1043967
-4.019012	loading	-0.1042928
-4.019012	loan	-0.08425175
-4.320043	loans	-0.08642365
-3.474944	local	-0.1038976
-4.320043	locality	-0.1023548
-3.621072	located	-0.2242686
-4.320043	logo	-0.1027515
-2.997823	long	-0.3627448
-3.541891	look	-0.08134615
-4.320043	looked	-0.09479181
-4.019012	looking	-0.1015814
-3.541891	looks	-0.1055415
-4.320043	loop	-0.09479181
-4.320043	loses	-0.1041056
-4.320043	losing	-0.1033145
-4.019012	lost	-0.09843177
-3.541891	lot	-0.1861167
-4.320043	louder	-0.1044175
-4.320043	loudly	-0.09479181
-4.320043	lousy	-0.1044175
-3.717982	love	-0.08075394
-4.019012	loved	-0.1594975
-4.320043	lover	-0.1023548
-4.019012	lovers	-0.08638033
-3.842921	loves	-0.0760977
-3.320042	low	-0.153256
-4.019012	lower	-0.1043967
-4.019012	lowest	-0.1042304
-4.320043	lubricating	-0.1043344
-4.320043	luxury	-0.1043967
-4.019012	machine	-0.1043344
-4.320043	machinery	-0.09479181
-3.143951	made	-0.2812049
-4.320043	magnate	-0.1044175
-4.320043	magnificent	-0.1044175
-4.320043	magnitude	-0.08715963
-3.320042	main	-0.1038351
-4.320043	mainly	-0.1043759
-4.320043	maintain	-0.07271223
-4.320043	maintained	-0.08642365
-3.842921	major	-0.10396
-3.842921	majority	-0.06837521
-3.621072	make	-0.09206024
-3.842921	making	-0.06296663
-4.320043	malicious	-0.09479181
-3.541891	man	-0.03074675
-4.320043	managed	-0.09500428
-3.717982	management	-0.05758246
-4.320043	manager	-0.08715963
-4.320043	managing	-0.1043967
-4.320043	manga	-0.1043551
-4.320043	manipulative	-0.08642365
-4.320043	mankind	-0.1008276
-4.320043	manner	-0.08592507
-4.019012	manufacture	-0.1779691
-4.019012	manufactured	-0.09438786
-3.842921	manufacturer	-0.09538646
-4.019012	manufacturers	-0.08711638
-4.019012	manufacturing	-0.1043136
-3.115922	many	-0.1010125
-3.717982	mao	-0.1557288
-4.320043	map	-0.08715963
-4.320043	maps	-0.08592507
-4.320043	margins	-0.1035228
-4.320043	mark	-0.1041888
-4.320043	marked	-0.1032936
-4.320043	markedness	-0.1043759
-3.416952	market	-0.1068229
-4.320043	marriage	-0.09479181
-4.019012	married	-0.0986214
-4.320043	marvelled	-0.1035228
-4.320043	mason	-0.1023548
-4.320043	mass	-0.08715963
-4.320043	masses	-0.1043967
-3.842921	master	-0.06837521
-4.320043	masterful	-0.1044175
-4.320043	mastering	-0.07271223
-4.019012	match	-0.07268988
-4.320043	matched	-0.08642365
-4.019012	matches	-0.1594975
-3.541891	material	-0.08270305
-4.320043	matrix	-0.07271223
-3.621072	matter	-0.07044801
-4.320043	matters	-0.08592507
-4.019012	maxi	-0.1041888
-4.019012	maximum	-0.08700822
-3.541891	may	-0.1241616
-4.320043	maybe	-0.1043759
-3.621072	me	-0.08360829
-4.320043	meals	-0.09479181
-4.320043	mean	-0.1041888
-4.320043	meaning	-0.08715963
-4.320043	meanings	-0.09545011
-4.320043	meanness	-0.09545011
-3.717982	means	-0.1201346
-4.320043	measure	-0.08642365
-4.019012	measures	-0.08300888
-4.320043	measuring	-0.1037519
-4.320043	mechanism	-0.09500428
-3.717982	media	-0.1023131
-4.019012	medical	-0.1043552
-4.320043	meditates	-0.09545011
-3.621072	meet	-0.2011205
-3.717982	meeting	-0.1013931
-4.320043	meetings	-0.08642365
-4.320043	melting	-0.08715963
-4.019012	member	-0.07235433
-4.320043	members	-0.1044175
-4.320043	memorabilias	-0.1004502
-3.717982	men	-0.0465384
-4.320043	mental	-0.1043967
-4.320043	mentality	-0.08715963
-3.842921	mentioned	-0.06636056
-4.320043	menus	-0.1004502
-4.019012	mercantile	-0.1779068
-4.019012	merchandise	-0.06710865
-4.320043	merchant	-0.1043967
-4.320043	mess	-0.08715963
-4.320043	message	-0.1044175
-4.320043	messenger	-0.1043136
-4.320043	messianic	-0.1032936
-4.019012	metal	-0.1779483
-3.842921	meters	-0.07603113
-4.320043	method	-0.1036061
-3.621072	metres	-0.2063156
-4.320043	metro	-0.1021877
-4.320043	microorganisms	-0.1013303
-4.320043	mid	-0.1013303
-3.842921	middle	-0.08459998
-4.320043	middleware	-0.1043759
-4.019012	midst	-0.160732
-4.019012	might	-0.1043759
-4.320043	migration	-0.1041056
-4.320043	military	-0.1043967
-4.320043	milk	-0.08592507
-3.320042	million	-0.1313079
-4.320043	millions	-0.08592507
-4.320043	mined	-0.08642365
-3.842921	mineral	-0.1467862
-4.019012	miners	-0.08174054
-4.320043	mini	-0.1013303
-4.320043	miniatures	-0.08642365
-4.320043	minimal	-0.1043967
-4.320043	minimize	-0.07271223
-4.019012	minimum	-0.1043967
-4.320043	mining	-0.09545011
-4.320043	minor	-0.1043967
-4.320043	minority	-0.09479181
-4.320043	minute	-0.08642365
-4.019012	minutes	-0.09434532
-4.320043	mirrors	-0.08715963
-4.320043	missile	-0.1043344
-4.019012	mission	-0.1599961
-4.320043	misuses	-0.07271223
-4.320043	mitigation	-0.1043759
-4.320043	mixed	-0.1039808
-4.320043	mixture	-0.08715963
-4.019012	mobile	-0.1032311
-4.320043	modalities	-0.1008276
-4.320043	mode	-0.08715963
-3.541891	model	-0.09095401
-4.320043	models	-0.07271223
-4.320043	modern	-0.09479181
-4.320043	modernity	-0.08642365
-4.320043	modernization	-0.08715963
-4.320043	modularization	-0.08592507
-4.019012	modules	-0.0896828
-4.320043	moloch	-0.1040848
-4.320043	mom	-0.1036686
-4.019012	moment	-0.06787807
-3.842921	monasteries	-0.08224395
-3.541891	money	-0.1034811
-4.019012	monthly	-0.102146
-3.717982	months	-0.120178
-4.019012	monumental	-0.1043967
-4.320043	moral	-0.1041888
-4.320043	morale	-0.09479181
-2.76374	more	-0.2215201
-4.320043	morning	-0.1040848
-3.115922	most	-0.1223255
-4.320043	mostly	-0.1043967
-3.842921	mother	-0.07157039
-4.320043	motivations	-0.08715963
-4.019012	motor	-0.1043967
-3.541891	mountain	-0.07702851
-3.842921	mouth	-0.13339
-4.320043	move	-0.1016442
-4.019012	moved	-0.09474932
-4.320043	movement	-0.09923185
-4.320043	moving	-0.1036894
-3.416952	much	-0.08899415
-4.320043	mule	-0.08642365
-4.320043	multi	-0.1013303
-4.320043	multimedia	-0.1044175
-4.320043	multiple	-0.1043967
-4.320043	multiplies	-0.1032728
-4.320043	municipal	-0.1043551
-4.320043	municipalities	-0.103252
-4.320043	municipality	-0.1043967
-4.320043	muses	-0.08642365
-4.320043	mushroom	-0.09479181
-4.320043	mushrooms	-0.09479181
-4.320043	musics	-0.08715963
-3.143951	must	-0.4346549
-3.115922	my	-0.1118161
-4.019012	myself	-0.0944304
-4.320043	n	-0.1035228
-3.541891	n't	-0.1519105
-4.320043	nailed	-0.09545011
-4.320043	naked	-0.1037519
-3.621072	name	-0.1136382
-4.019012	named	-0.1030644
-4.320043	namely	-0.07271223
-4.320043	napa	-0.1044175
-4.019012	narrow	-0.1043759
-4.320043	nation	-0.09479181
-3.717982	national	-0.1042304
-4.320043	nationalists	-0.1038559
-4.320043	nationalization	-0.08715963
-4.320043	nativizado	-0.09479181
-3.621072	natural	-0.08562132
-4.019012	naturalness	-0.06710865
-3.842921	nature	-0.08690003
-4.320043	nautical	-0.1042928
-4.019012	navy	-0.1043552
-3.842921	near	-0.1179291
-4.320043	necessarily	-0.1043967
-3.474944	necessary	-0.08531734
-4.320043	necessity	-0.09453672
-2.97762	neck	-0.7053304
-4.320043	neckline	-0.09545011
-3.717982	need	-0.08715963
-4.320043	needed	-0.1016442
-3.320042	needs	-0.06732801
-3.842921	negative	-0.1043344
-4.320043	neighbouring	-0.1039392
-3.842921	net	-0.08546935
